906 90
OMIM131200 -0.281443 0.237872 0.105941 0.161932 0.528030 -0.063996 -0.542324 0.469961 -0.087622 0.002569 -0.052911 0.694162 -0.048267 0.283049 -0.604863 -0.123997 0.219134 0.248710 0.433742 0.114215 -0.321291 0.684630 0.580745 0.175523 -0.022840 0.493222 -0.023127 -0.014268 0.565514 0.260921 -0.379050 -1.031064 0.239781 -0.149097 0.018359 0.074044 0.111801 0.701160 -0.066639 0.038155 0.031101 -0.439025 -0.871082 -0.671967 -0.216983 0.453111 0.073259 0.321627 -0.359395 -0.563536 -0.099929 0.230889 -0.016011 -0.247870 0.066968 0.353823 -0.216023 0.217026 -0.336634 0.600852 0.042254 0.676642 0.424562 0.171940 0.052924 0.651794 0.034406 0.230781 0.305593 -0.059109 0.310721 -0.180713 0.271636 0.140854 -0.246429 -0.284916 0.036102 0.518514 -0.260962 0.326053 -2.124816 0.322333 -0.684132 0.110932 0.048887 0.762728 0.011697 -0.252745 -0.301120 0.476636
OMIM161900 -0.248035 0.062218 -0.082903 -0.269600 0.217769 -0.248393 0.016942 -0.012635 0.092227 0.371275 0.126974 -0.335439 0.122516 -0.505569 0.037211 0.013152 -0.270402 0.090887 0.268321 0.118160 0.176521 -0.141388 -0.097294 -0.376147 13.621862 -0.250337 -0.256411 -0.248932 -0.003809 0.204035 -0.358478 0.138649 0.161410 0.354239 13.474565 -16.257950 0.296150 -0.302658 0.202052 0.012251 0.293994 -0.814187 0.175758 -0.082062 -0.379333 -0.120743 -0.100534 0.222702 -0.342721 0.152301 -0.079872 0.124174 -0.005682 0.357279 0.032178 -0.032078 -0.209919 0.058700 -0.267599 -0.074812 -0.077686 -0.189995 0.321959 -0.601763 -0.010702 0.125405 0.086726 -0.036196 0.173482 0.033040 -0.026528 -0.188062 -0.028471 0.121648 -0.195179 -0.014884 0.242320 -0.600956 -0.255889 0.700716 6.583172 -0.298614 -0.174098 -0.177063 0.042650 0.259483 0.110953 -0.038273 -0.249378 -0.249854
OMIM147530 -0.115313 -0.198619 -0.044410 0.038356 0.164230 0.193193 0.083676 -0.035456 -0.687037 0.129371 0.209790 -0.088108 -0.025392 -0.150027 0.019950 1.508148 -0.640700 0.043694 -0.003579 -0.084980 0.230739 0.278172 -0.364364 -0.122452 -0.085025 0.164698 0.017299 -0.074660 0.040667 0.144160 -1.228127 0.001739 -0.165699 -0.057193 0.192961 0.037408 -0.048336 0.098074 -0.110668 -12.816740 0.317872 0.380471 0.128026 -0.029363 0.036739 -0.049186 0.260296 -0.502550 -0.256620 0.087919 0.182569 0.384284 -0.616482 -0.270918 0.189672 0.012383 -0.182506 -0.247634 0.388480 0.325854 0.091547 -0.024870 0.557985 -1.603560 -0.105784 0.196252 -19.766182 -0.044845 -0.385251 -0.061380 -0.023454 0.316278 -0.043850 0.039673 -0.011432 0.053022 0.067917 0.051011 0.166080 -0.835159 5.674551 -0.159397 0.153553 0.052535 -0.005443 0.008072 0.006300 0.117921 -0.149927 -0.193687
OMIM608622 -0.188619 -0.065520 0.044005 -0.087568 0.454229 -0.576765 -0.471006 -0.005861 -0.026228 0.551427 0.384416 -1.121447 0.045324 -0.371491 0.034953 0.819275 -0.647335 -0.002671 0.096837 0.092404 0.407218 -0.198227 -0.434199 -0.312852 -0.050820 -0.405520 -0.115610 0.095620 0.232228 0.174180 -0.472240 0.184773 -0.018472 0.240360 0.325534 0.043235 0.146003 -0.185050 -0.174694 0.011104 0.608209 -0.527037 0.219110 -0.183605 -0.381698 -0.241848 -0.155895 0.321899 -0.418268 0.084588 -0.006676 -0.034403 0.012161 0.370124 0.106348 0.072369 -0.423107 0.165607 -0.399737 -0.055681 -0.067677 -0.125430 0.417172 2.129984 -0.280810 -0.045650 0.010859 -0.160074 0.516326 0.111379 0.051766 -0.264481 -0.041486 0.334126 -0.075033 0.114699 -23.012728 -0.744937 -0.129606 1.150378 6.873404 -0.555674 0.060559 -0.178093 0.187967 0.305056 0.165528 -0.026516 -0.220853 -0.342553
OMIM276300 -0.067270 -0.296800 -0.152965 0.067729 0.245572 -0.868255 0.133763 -0.036722 0.144604 -0.441457 0.305372 0.279503 0.286451 0.210519 0.271440 -0.037797 0.598487 -0.208246 -0.332068 0.025061 -0.467594 -0.042517 0.451447 -0.088187 -0.051693 0.071909 -0.325734 0.168545 -0.112247 0.241491 -0.176867 -0.207608 0.233848 0.361735 -0.050382 0.038825 -0.083923 -0.363196 -0.096101 0.020344 -0.463856 0.049152 0.071734 0.168302 -0.001609 -0.107115 0.244679 0.086641 -0.353140 0.383479 -0.337886 -0.010885 -0.177179 -0.339801 -0.046086 -0.110493 0.103520 -0.259896 -0.164397 0.124984 0.068023 -0.069128 0.037322 0.737566 0.114695 0.301332 0.054813 0.075591 -1.671255 0.134303 0.212444 0.119135 -0.578335 -0.103331 -0.023403 -0.500030 0.073168 0.590785 0.106924 0.121534 6.505450 -0.719366 -0.121279 -0.054665 -0.512507 0.035955 -0.220306 -0.042711 -0.189487 -0.021353
OMIM208550 -0.183924 0.195184 0.350177 -0.299187 -0.310510 0.094281 -0.674562 0.233251 0.042185 -0.042360 -0.116251 0.357327 -0.165924 0.459034 -0.085664 -0.318829 0.145633 0.385448 0.111899 -0.463843 0.358255 0.016931 0.127688 -0.288079 -0.091713 -0.251456 0.385727 0.510147 0.386239 0.268203 -0.414744 -0.464819 -0.186922 -0.046336 -0.004440 0.035872 -0.149369 -0.313580 0.026737 0.013356 0.260686 -0.287706 0.419338 0.002244 0.101995 -0.131824 -0.083734 0.408947 -0.141653 0.088825 -0.036393 -0.097974 0.078412 0.413803 0.025665 0.064847 -0.031491 -0.146712 -0.132494 0.189598 0.016564 -0.123218 -0.532886 -0.001558 0.851167 -0.305430 0.046441 -0.682860 -0.274729 0.230507 -0.655010 -0.414690 0.300165 -0.436449 -0.179014 0.553732 0.069068 0.363317 0.506874 -0.153797 6.221303 0.316836 0.113685 -0.012678 -0.208032 0.121489 0.020926 -0.584356 -0.185623 0.363303
OMIM157300 -0.541831 0.052439 -0.405368 0.309040 -0.546447 -0.763987 0.203382 0.048327 -0.405255 -0.149289 -0.291163 -0.100280 -0.123233 -0.216122 0.005427 -0.137483 -0.291084 -0.337159 0.074071 -0.444916 0.100053 -0.046475 -0.277571 0.065222 -0.061275 0.499951 0.247839 -0.173513 0.064027 0.170075 -0.513857 -0.119560 -0.266919 -0.358243 0.057269 0.085095 -0.608008 0.134634 -0.379627 0.062443 -0.730838 0.163809 -0.261198 -0.023698 -0.292346 -0.058471 0.058174 -0.164014 0.374935 0.315573 -0.100407 -0.084324 0.476174 0.245745 0.572177 -0.293683 -0.061611 0.596423 -0.770232 -0.167122 0.042947 -0.086171 -0.146391 -0.564029 -0.013863 -0.002856 0.054198 -0.081172 0.134654 0.158065 -0.036083 -0.519493 0.170107 0.154250 -0.294694 -0.476732 0.031370 -0.061398 0.056355 -0.452707 7.447871 -0.405951 0.160852 0.420755 0.119949 -0.056952 0.039165 0.109219 -0.271340 -0.257347
OMIM145590 -0.316455 0.898540 -0.066204 -0.166861 -0.093115 1.076247 -0.793069 -0.271096 -0.004071 -0.280593 -0.034980 -0.453993 0.037918 -0.026534 0.201229 0.530795 -0.607000 -0.076669 -0.448461 0.971192 0.154033 -0.240834 -0.083617 0.306014 -0.077916 0.131112 -0.355087 -0.324978 -0.281076 0.255963 -0.149249 -0.049423 -0.267094 -0.327744 0.024105 0.065606 0.223168 0.349931 0.308813 0.089745 -0.504716 0.073425 -0.199448 -0.119572 0.129036 -0.105947 0.196111 0.291592 -0.483627 0.406524 0.044301 -0.175002 -0.199269 0.414130 -0.000451 -0.018212 0.077632 0.177371 -1.089094 0.396002 -0.095600 -0.111611 -0.495877 0.108481 0.374080 0.356790 0.025282 -0.218389 -0.290327 0.130734 -0.257399 -0.056404 0.158930 0.034826 -0.150566 -0.113754 0.062073 0.580601 -0.590720 -0.572958 6.662170 0.010152 0.179946 0.194511 -0.108744 -0.128320 -0.256772 0.117321 -0.218848 0.073012
OMIM140600 -0.038802 -0.089151 0.281376 0.191904 -0.026283 -0.058967 -0.256318 0.345832 -0.439844 -0.245342 0.165869 -0.734383 0.124880 -0.033439 -0.242014 -0.195719 -0.754733 0.078036 0.062324 -0.008652 -0.001938 0.028763 0.034080 -0.208058 -0.056998 0.076918 0.390555 0.064991 -0.255618 0.154314 0.090506 0.078592 -0.025172 -0.377421 -0.019871 0.043993 0.590183 0.125871 0.089894 0.055371 -0.312647 -0.072637 -0.149591 0.047639 0.210568 -0.315434 -0.004713 -0.256194 0.318611 -0.075441 0.046896 0.280274 0.157607 0.665466 0.339858 0.126559 0.104189 -0.332728 0.284374 0.237027 -0.054960 -0.005678 0.079870 0.219670 -0.145529 -0.033934 0.037821 0.248107 -0.397091 -0.303395 -0.207386 0.111442 0.329208 -0.254235 -0.059875 -0.561575 0.074342 0.234790 0.050063 -0.461995 7.853728 0.059480 0.143659 -0.380618 -0.430317 -0.111730 -0.098987 0.121121 -0.320560 0.388303
OMIM600807 -0.008148 0.297769 0.534683 -0.423542 -0.288508 -0.235292 -0.783997 0.051637 0.093486 0.078176 -0.427349 0.067361 -0.178592 0.553183 0.298051 0.097790 0.034850 -0.196546 0.026255 -0.604599 0.486799 -0.105396 0.262539 -0.263662 -0.035609 0.221882 0.395705 0.462293 0.166225 0.321945 -0.337047 -0.219295 -0.044043 -0.122089 0.022683 0.066864 -0.239752 -0.214591 0.365723 0.054501 0.556911 -0.328860 0.035105 0.152768 0.255650 -0.490600 -0.301501 0.225214 -0.074390 0.043437 -0.178401 -0.273889 -0.059287 -0.246942 0.011531 -0.151465 -0.123362 -0.163298 -0.071907 0.094033 -0.290242 -0.062281 -0.470902 -0.096981 0.445782 -0.245652 0.059414 -0.567369 0.044449 0.138081 -0.472380 -0.143090 -0.037915 0.007528 -0.081202 0.392611 0.070780 0.334524 0.099006 -0.139190 6.758305 0.327711 0.122912 -0.359304 -0.148365 0.203933 -0.185179 -0.497855 -0.174435 0.518392
OMIM114480 -0.240185 -0.036658 -0.233830 -0.333890 -0.623971 -0.002525 -0.071853 0.425933 -0.186083 -0.116300 -0.288989 0.279213 0.099379 -0.128771 0.193385 0.556973 0.501265 -0.008538 -0.179313 -0.434219 -0.359254 -0.249115 0.512504 -0.309493 -0.040210 0.051446 -0.481426 0.253057 -0.149703 0.258270 0.425933 -0.097315 0.004509 0.065189 -0.055772 0.047457 -0.202485 -0.317853 0.524373 0.033889 -0.755787 -0.410233 -0.239646 -0.365668 -0.081549 0.260328 0.168858 0.353176 -0.131762 -0.604052 0.083862 0.134239 0.074697 -0.127403 -0.143673 -0.110532 0.316606 0.194104 0.444018 0.432633 -0.018999 0.580206 -0.082751 0.668222 -0.101562 0.104860 0.046817 -0.004314 0.184139 -0.372021 0.359033 0.260849 0.252379 -0.009026 -0.020185 -0.061616 0.079045 0.284096 -0.162288 0.161296 6.427351 -0.158806 -0.098155 0.366611 -0.387924 0.231724 0.211726 0.124946 -0.188142 -0.182467
OMIM181500 0.304403 -0.013311 -0.289750 0.454126 0.185446 0.089611 -0.208888 -0.149002 0.725897 -0.000461 0.596817 -0.097590 -0.262180 0.553107 -0.708188 0.226046 -0.504495 -0.641278 -0.075500 -0.538408 -0.016195 0.233427 -0.202637 -0.086063 -0.082573 -0.126793 -0.223145 -0.071403 0.477225 0.227218 0.478288 0.020906 -0.204503 -0.628952 0.019476 0.044167 0.101182 -0.043077 0.228984 0.055982 0.190755 -0.084902 -0.115975 -0.457179 0.431610 0.337094 0.563118 0.230956 -0.332035 0.097721 -0.117461 -0.532614 0.015666 0.069595 -0.209927 -0.507021 0.367462 0.001936 -0.086423 -0.235561 0.309236 0.251498 -0.148513 -0.331260 0.000414 0.038657 0.060384 -0.129839 0.213782 -0.202318 0.125978 0.240647 -0.647586 -0.603980 -0.447650 -0.063878 0.074186 -0.273212 -0.155629 -0.245057 7.613538 -0.274023 0.153413 -0.407162 0.104807 -0.200473 0.299377 0.091393 -0.247150 -0.625097
DB00635 -0.017417 -0.333437 -0.343391 0.017139 -0.179917 -0.103223 0.824268 -0.146690 -0.068806 -0.106711 0.529930 2.130893 0.043906 0.333650 0.202885 -0.101677 0.314437 0.150894 -0.182923 -0.202539 -0.035840 0.058546 0.313004 0.205040 -0.044620 -0.135797 -0.100904 -0.184185 -0.014578 -4.886468 -0.663246 -0.023267 -0.009239 -0.216420 -0.048269 -0.013651 -0.130757 0.254478 -0.110122 0.048624 -0.437647 0.180520 -0.122032 0.080963 0.013901 -0.193088 -0.023808 0.301530 0.308789 0.100436 -0.002606 0.215207 0.004921 0.339942 -0.104267 0.222580 0.150681 0.366886 0.037488 0.049976 0.146957 -0.192383 -0.748577 0.309998 0.241498 -0.231643 0.046240 0.100744 0.053450 0.055364 0.414654 -0.385858 0.035968 -0.264704 -0.114903 -0.134605 0.036563 -0.236253 0.308213 -0.093559 -0.196800 -0.508318 -0.054104 0.038049 -0.259361 0.069153 0.014784 -0.344064 5.383910 0.525880
DB00563 0.045495 0.081997 -0.284758 -0.280362 -0.066047 -0.012338 1.786022 0.011037 -0.277080 -0.157705 0.128615 1.542112 0.216708 -0.242332 0.018063 -0.023803 0.568105 -0.337015 0.156408 -0.039358 -0.430923 -0.014946 0.550964 -0.176681 -0.050467 -0.219430 0.143923 0.082804 -0.027838 -2.367130 -0.398201 0.060507 -0.110870 -0.480609 -0.071125 0.017443 -0.036744 -0.055589 -0.113812 0.080535 -0.140330 0.509457 0.088420 0.011496 0.163979 -0.153083 0.127876 0.430589 -0.250807 0.136970 -0.047828 0.102392 0.014093 -0.254100 -0.163808 -0.044989 0.043704 0.065835 0.263182 -0.181929 0.111419 0.045534 -0.356329 0.599569 0.149940 0.095007 0.020312 0.128986 0.238217 0.090572 0.084092 0.333454 -0.002020 0.161948 0.041184 -0.400420 0.042663 -0.008575 -0.114567 0.129598 -0.208588 -0.071472 -0.273268 -0.145785 -0.597900 -0.060078 0.084806 0.054578 8.465502 0.116894
DB01234 0.056640 -0.179028 -0.142716 -0.033533 0.436248 0.527047 -0.533908 -0.368569 0.112176 -0.360219 0.826040 0.968931 -0.007324 0.368620 0.227816 -0.418995 0.146804 0.473200 -0.029643 0.253565 0.017948 -0.007915 0.345318 0.047599 -0.063771 -0.204251 -0.106460 0.101481 -0.186105 -4.994011 -0.401086 -0.234412 -0.150294 -0.043412 -0.053708 -0.023615 -0.100389 0.102262 -0.436413 0.027908 -0.631910 -0.185747 -0.074401 0.130515 0.119042 -0.294957 -0.089222 0.323809 -0.074403 0.216467 -0.157595 0.115567 -0.084649 0.187686 -0.004159 0.023991 -0.004552 0.267975 0.116907 0.142820 -0.097772 -0.103503 -0.411111 0.493892 0.209287 0.114520 0.025412 0.047206 -0.272981 0.096258 0.222684 -0.284810 0.154552 -0.277183 -0.200743 -0.073170 0.042756 -0.077417 0.107233 -0.148362 -0.295112 0.031728 0.090626 0.114087 -0.300377 0.035186 0.177008 -0.394621 5.393709 0.051923
OMIM165720 0.223758 -0.128284 0.036196 0.130423 -0.079674 -0.022698 0.234614 0.140065 -0.449748 0.062903 -0.115133 -0.754904 0.107001 0.026941 -0.047721 -0.273953 -0.745159 0.110697 -0.013139 0.079810 -0.198315 0.088073 -0.133197 -0.136590 -0.072266 0.196963 0.163919 0.072175 -0.054332 0.103281 0.017297 0.056412 0.108730 -0.048315 -0.016841 0.051046 0.340321 -0.101934 -0.034460 0.060179 0.184623 -0.281206 -0.065578 0.012144 0.111363 -0.101207 -0.096536 -0.087968 0.171187 -0.025930 -0.063910 0.154973 0.241879 0.054116 -0.042144 0.082791 0.367941 0.008008 0.097800 0.406973 -0.061568 -0.097623 0.229983 0.246210 0.073662 -0.088045 0.013607 0.228458 -0.102011 -0.120537 0.066423 0.155192 0.159122 -0.158929 -0.138216 -0.591248 0.079959 -0.054830 0.135595 -0.511270 8.797513 0.311943 0.188516 -0.332370 -0.409627 -0.157615 -0.093460 0.036669 -0.396597 0.263727
OMIM607850 0.215280 0.040601 0.090780 0.042889 -0.062586 -0.160355 0.286877 0.180902 -0.380695 0.042094 -0.093720 -0.719475 -0.011072 0.014832 -0.165311 -0.327451 -0.815838 0.144721 -0.089883 0.062920 -0.191628 0.179785 -0.142416 -0.116295 -0.055234 0.196251 0.107092 0.078771 -0.051133 0.115039 -0.022164 0.027240 0.039581 -0.028668 -0.026220 0.067989 0.379127 -0.126474 -0.104568 0.037161 0.159570 -0.186528 -0.007346 0.103731 0.091866 -0.127092 0.076315 -0.095263 0.188848 -0.072096 -0.034659 0.171689 0.254068 0.008985 0.036348 0.158834 0.417743 0.028554 0.211097 0.365789 -0.122997 -0.102503 0.193475 0.265231 0.103057 0.073092 0.028564 0.252106 -0.155272 -0.134575 0.157914 0.091931 0.218746 -0.206856 -0.155185 -0.574662 0.079588 0.042103 0.124874 -0.491287 8.940642 0.250933 0.197304 -0.280918 -0.474945 -0.053795 -0.103463 0.065777 -0.403943 0.156397
OMIM607459 0.154000 0.000673 0.134632 0.124003 -0.094760 -0.049372 0.282174 0.172719 -0.443870 0.091943 -0.115536 -0.767674 0.129488 0.069565 -0.186224 -0.259846 -0.737870 0.127948 -0.058545 0.026082 -0.147283 0.155079 -0.273655 0.019751 -0.066046 0.137562 0.079676 0.048223 -0.098337 0.142438 0.019985 -0.007326 0.102862 0.101160 -0.010514 0.056514 0.223458 -0.083861 -0.126704 0.030475 0.195020 -0.147107 -0.083029 0.110999 0.213897 -0.035389 0.025155 -0.093642 0.083527 -0.096091 -0.049535 0.206933 0.263821 -0.012466 0.016398 0.136339 0.462336 0.103816 0.189053 0.369743 -0.070828 -0.117817 0.204858 0.267264 0.112488 -0.003724 0.039547 0.337699 -0.137006 -0.124473 0.001369 0.089100 0.204588 -0.159733 -0.099363 -0.525111 0.075996 -0.050246 0.082636 -0.511165 8.981956 0.303627 0.163520 -0.242945 -0.501696 -0.087806 -0.001972 -0.038735 -0.385529 0.177468
OMIM217200 0.097939 0.508355 -0.021807 -0.068642 -0.171869 -0.041847 0.227850 -0.238183 0.397189 0.094293 -0.103899 0.539746 0.070071 0.376169 -0.660112 0.465328 0.468143 0.009940 0.598301 -0.347979 0.151768 0.326633 -0.416243 -0.093766 -0.060794 0.231510 -0.191657 -0.133748 -0.076543 0.129917 0.263712 0.078382 -0.280225 0.412837 -0.016491 0.057469 0.172500 0.043442 -0.324633 0.046595 -0.175921 -0.352588 -0.004173 -0.328738 0.392606 0.382832 -0.463651 0.185799 0.133571 -0.047416 -0.178541 0.270674 0.251567 -0.015539 0.024976 0.180616 -0.206944 -0.186416 -0.003193 -0.014452 -0.564116 0.459538 -0.339186 0.067531 -0.077973 -0.101255 0.048076 0.350351 -0.371708 0.197564 -0.201556 0.206710 -0.216674 0.447735 0.307800 -0.309500 0.065157 -0.450329 -0.426704 -0.312701 7.352745 0.020439 0.130547 -0.012501 0.436649 -0.179574 -0.157417 0.187331 -0.293723 0.048461
OMIM208230 0.243550 -0.074938 0.028331 0.209417 -0.030713 -0.102547 0.282282 0.139178 -0.467572 0.057559 -0.046111 -0.768622 0.083229 0.000040 -0.130194 -0.295051 -0.775547 0.133801 -0.088553 0.105830 -0.118891 0.040247 -0.100539 -0.096815 -0.080389 0.130670 0.028181 0.043226 -0.032743 0.110630 0.030958 -0.014486 0.029368 -0.024344 -0.027284 0.056682 0.298163 -0.174127 -0.102911 0.049435 0.177108 -0.185365 -0.042472 0.056104 0.134988 -0.065102 -0.033631 -0.078546 0.129135 -0.048471 -0.055973 0.150890 0.320822 0.033046 -0.008763 0.095254 0.403488 0.025766 0.108395 0.367198 -0.090188 -0.053427 0.168419 0.236366 0.089434 0.025224 0.025503 0.366776 -0.119084 -0.040933 0.059899 0.150670 0.144829 -0.128157 -0.151938 -0.553098 0.082329 0.035820 0.076478 -0.501040 9.179043 0.294523 0.255139 -0.350344 -0.429233 -0.076867 -0.094192 -0.031001 -0.400850 0.254804
OMIM146255 0.172405 0.284151 -0.013144 -0.344781 -0.914201 -0.433040 -0.368911 -0.623382 0.073994 0.363528 0.425152 -0.231406 0.074089 0.092427 -0.153448 -0.765382 -0.183379 -0.379840 -0.699337 0.019409 0.246010 0.002364 -0.188716 -0.108910 -0.095072 -0.655855 -0.011787 0.169141 0.157144 0.167699 -0.062042 -0.260567 0.088689 0.044062 0.220937 0.177873 0.182095 -0.312697 -0.027920 0.003743 0.267736 -0.228795 0.081250 -0.311904 -0.330461 -0.369899 -0.182296 0.085658 0.030717 -0.048660 0.765403 0.475892 -0.042030 -0.043244 -0.205384 0.487482 -0.304668 0.279755 -0.532006 0.034377 -0.250984 -0.137073 0.446041 -0.603603 -0.533952 0.101234 0.074727 0.029538 -0.302475 -0.183987 0.198969 0.127732 0.216595 0.349355 -0.245750 0.040363 0.077346 -0.077220 -0.390475 0.871696 8.179169 -0.092211 -0.481330 -0.220123 0.043148 -0.123581 0.421877 -0.032387 -0.294966 -0.036349
DB00996 -0.203992 -0.079359 0.206648 0.217966 -0.054172 0.013510 0.643569 0.290035 -0.177307 -0.056603 -0.103833 1.080066 -0.300145 -0.168611 0.569413 -0.148347 0.452633 0.049967 -0.163685 0.107327 0.127056 0.773045 -0.378477 0.092980 -0.052228 -0.076320 -0.187604 0.051436 0.159172 -6.920805 -0.312791 0.088552 -0.258968 -0.314630 -0.057131 -0.006808 -0.139791 -0.184869 -0.061911 -0.012499 0.031103 -0.094335 -0.062641 -0.117459 0.009445 0.305541 -0.296239 -0.201733 -0.072903 -0.136139 0.071241 -0.206185 -0.297328 0.114622 0.217055 -0.159753 -0.452287 -0.001774 -0.301988 -0.327480 -0.429971 -0.071059 0.020297 -0.566993 -0.280277 0.263813 0.060831 0.493028 0.299711 -0.078517 -0.393874 0.286477 -0.038399 -0.117894 -0.018954 -0.643883 0.047755 0.122147 0.582141 -0.415088 -0.276831 -0.168412 0.336403 -0.091315 0.466531 -0.049710 0.069448 -0.048573 4.903604 -0.171639
OMIM190310 -0.239170 0.551555 -0.084306 -0.096217 0.094028 0.120665 0.330590 -0.022348 -0.004429 0.352593 0.202280 0.184172 -0.381747 -0.361280 0.101992 -0.188855 0.336309 -0.086526 -0.382808 -0.141311 0.186847 -0.013843 -0.183425 0.062887 -0.040509 -0.169352 0.466211 -0.489657 -0.117134 0.174281 0.345162 -0.711582 0.149873 -0.208713 0.045874 0.075363 0.072988 0.089334 0.366308 0.047884 0.004442 0.004216 0.473448 0.104956 0.606822 -0.437422 -0.356701 -0.470039 -0.332145 -0.368972 -0.395885 -0.124640 0.273646 -0.182967 -0.024552 -0.172417 -0.165235 -0.565571 0.559252 -0.103198 0.452865 -0.169275 0.189829 0.084089 0.207019 -0.151834 0.063224 0.276903 -0.027165 -0.471255 0.291407 -0.701317 0.244457 0.286108 0.020295 -0.302754 0.063560 -0.241888 -0.158274 -0.116103 8.642164 -0.221297 0.089610 -0.040200 0.465913 0.122877 -0.328753 0.285934 -0.267632 0.149704
OMIM215140 0.098871 0.202946 -0.098206 -0.211974 0.532497 0.396800 0.347076 -0.092458 -0.123983 -0.496768 0.546857 -0.063900 0.030266 0.538091 -0.175586 -0.204085 -0.020327 0.186233 0.131665 0.413652 0.179896 -0.125876 -0.001979 -0.217908 -0.064012 -0.035056 -0.000197 0.358395 0.235369 0.095698 -0.194392 -0.158740 -0.226565 0.049442 0.132517 0.104454 0.054867 0.697481 -0.387879 0.050431 -0.039728 -0.658216 0.095997 -0.113596 -0.091153 -0.122163 -0.186112 0.264214 0.377301 0.042911 -0.101754 0.081581 0.009097 -0.061329 0.020887 0.323325 0.088856 0.136897 0.281120 -0.099812 -0.037301 -0.310941 0.215530 -0.205095 0.102145 -0.027605 0.060649 0.055312 0.130976 0.032163 0.155077 -0.019224 -0.056773 0.229374 -0.023291 -0.138010 0.064044 0.121773 -0.089961 0.557065 7.991016 -0.502019 -0.425254 0.223948 0.123171 0.169373 0.434910 -0.277271 -0.322227 -0.144762
OMIM125853 -0.189899 -0.129527 -0.132768 0.218597 -0.030614 0.020346 -0.213639 -0.013191 -0.119945 -0.183100 0.006430 -0.467723 -0.285929 0.086708 0.177245 -0.076473 -0.606023 -0.157142 -0.127916 -0.044906 -0.468981 0.664121 0.474046 0.112587 -0.044496 -0.012962 -0.067723 -0.225267 -0.182219 0.176741 0.178459 -0.570691 0.328917 0.098131 0.011193 0.059662 -0.188895 0.143572 0.026849 0.038262 -0.037297 0.214627 0.242853 0.313596 -0.021764 0.388775 -0.375210 0.362597 0.045686 0.191354 0.333081 0.244351 -0.012763 -0.081411 -0.118258 0.142404 0.194266 -0.221601 0.121959 -0.289158 -0.236651 -0.011839 -0.085983 -0.167429 -0.075688 -0.145893 0.073685 -0.246145 0.151015 0.381614 0.084738 0.142571 0.125192 0.002986 0.395545 0.386129 0.071357 0.039833 0.146900 0.500626 8.373837 0.187978 -0.297359 -0.068124 0.480116 -0.248432 -0.479879 0.237306 -0.324776 -0.290502
OMIM600496 -0.200678 -0.016491 -0.144343 0.167141 -0.041964 0.045814 -0.169448 0.088507 -0.062581 -0.163950 0.000968 -0.469281 -0.403418 0.029523 0.275987 0.059306 -0.611360 -0.232729 -0.062932 -0.090509 -0.446549 0.715303 0.395611 0.095688 -0.059776 -0.198809 -0.065819 -0.191434 -0.079426 0.162619 0.084890 -0.579697 0.347390 0.224145 0.032484 0.086034 -0.072745 0.085577 -0.083830 0.042111 -0.021158 0.279649 0.186775 0.401467 0.048600 0.487208 -0.398501 0.270165 0.189032 0.293721 0.312618 0.295194 -0.064634 -0.013774 0.009234 0.076856 0.162563 -0.249383 0.241204 -0.217098 -0.264146 0.168385 -0.070164 -0.201854 -0.248888 -0.108574 0.092582 -0.313246 0.100674 0.328558 0.000546 0.133402 0.121039 -0.030567 0.404902 0.474779 0.071167 0.072198 -0.018085 0.471487 8.554579 0.130697 -0.331242 -0.118964 0.347960 -0.328579 -0.326106 0.182582 -0.329726 -0.291369
DB00794 -0.248364 0.077150 0.453066 -0.172106 0.410519 -0.026227 1.963807 -0.038406 0.042002 0.160688 -0.184483 1.510069 -0.310399 -0.016130 -0.056887 0.037597 0.637391 0.025051 -0.154804 0.070507 0.169565 0.831917 -0.439238 0.066514 -0.073007 -0.138411 0.183503 -0.130141 -0.032369 -9.172873 0.143325 0.091446 -0.375334 0.136726 -0.053091 -0.005858 -0.020958 0.023355 0.061590 0.073079 0.043120 -0.230494 0.382569 -0.100575 0.316012 0.468419 -0.694995 0.038260 0.030868 -0.267229 0.070892 -0.293072 -0.164597 0.178842 0.056168 -0.156164 -0.247475 -0.055410 0.185011 -0.213433 -0.285973 0.060038 -0.107479 0.151982 -0.145273 0.165906 0.037459 0.288656 -0.060247 -0.207543 0.113986 -0.117465 0.246908 0.046676 -0.016602 -0.705251 0.047818 0.077483 -0.137019 -0.339572 -0.301615 -0.061134 0.195154 -0.030927 0.360196 -0.294356 -0.183754 0.128039 5.376686 -0.020184
OMIM168100 -0.463048 -0.494634 -0.078035 0.215440 -0.131336 0.057743 -0.490955 0.075948 -0.382992 0.252657 0.286898 0.075228 0.059233 -0.072295 0.685501 -0.105840 0.325035 0.054068 0.359697 0.283567 0.390247 0.293699 -0.385734 0.325332 -0.084886 -0.111759 0.054789 0.289122 0.429821 0.290846 0.412346 0.130287 0.660962 0.504525 -0.001714 0.050044 0.201202 0.064807 -0.018128 0.048972 0.013630 -0.032132 -0.027715 -0.307328 0.641293 -0.114173 0.723384 -0.233797 -0.120228 0.238110 0.154629 -0.552074 0.510620 -0.211438 0.564903 -0.201361 0.216663 0.082033 -0.106458 -0.190190 -0.078040 -0.068346 -0.040829 -0.161517 0.219243 -0.016135 0.049350 0.033858 0.236435 -0.058196 0.271089 0.136576 0.189998 0.143565 0.454540 0.297686 0.084850 0.191001 -0.402019 0.071470 7.304211 0.115146 -0.026485 -0.125954 0.275003 -0.162491 0.182105 0.346512 -0.192459 0.235163
DB00997 0.256011 0.062352 -0.044924 0.062110 -0.367637 0.020659 0.027452 -0.021908 -0.026786 -0.097022 -0.599587 0.735826 0.268274 -0.082577 -0.179796 0.298757 0.576383 -0.324039 -0.156005 0.230524 -0.462064 -0.132075 0.477128 -0.006637 -0.051505 -0.125614 0.002054 0.124744 -0.100275 -2.945537 -0.103810 0.000245 -0.187954 0.310421 -0.059792 0.025774 -0.066379 -0.254456 0.136113 0.060425 -0.797630 0.068107 0.267473 0.264555 -0.135716 0.211376 0.163705 0.199016 -0.049471 0.178800 0.165994 -0.039880 0.098297 -0.266017 0.106036 -0.417157 -0.197789 0.012565 0.208688 0.054915 0.161021 0.003129 0.202468 0.610379 0.378822 -0.110234 0.030254 0.122793 0.286946 0.070661 0.275052 0.143474 -0.266870 0.139691 -0.083452 -0.219632 0.060849 0.346550 0.133877 0.122585 -0.290281 -0.203520 -0.162828 -0.591713 -0.479899 0.134784 0.207166 0.289663 8.563027 -0.052310
OMIM247640 0.143320 -0.334725 0.261509 0.133933 -0.658848 0.002687 0.194099 -0.469737 0.001354 0.197051 -0.041295 0.471548 0.052841 -0.071501 -0.391365 -0.099211 0.461998 -0.098752 -0.366048 0.279898 -0.349866 0.138726 0.370197 -0.178751 -0.091636 0.114421 -0.244653 0.039670 -0.263451 0.318221 -0.549737 0.023139 -0.016352 0.146409 -0.010323 0.041649 0.145390 0.181673 0.490432 0.012849 0.035089 0.464230 0.216460 0.133938 -0.076365 0.067041 0.111362 0.200595 0.372981 0.327881 -0.406308 -0.271057 0.064652 0.075754 0.373951 -0.136897 -0.202488 -0.315243 0.108825 -0.023039 0.232824 -0.101490 -0.108630 0.357984 0.192460 0.265758 0.042581 0.170525 0.256882 0.400336 0.236899 0.128777 -0.279699 0.171515 0.053005 -0.079415 0.077805 -0.288989 0.098190 0.142977 7.138425 -0.321093 -0.160280 -0.132935 -0.683011 0.051483 0.044592 0.163171 -0.145646 0.137631
DB00541 0.132873 0.104127 -0.236251 0.294958 -0.166427 0.394340 0.225417 -0.237617 0.013415 -0.441874 -0.407066 0.491091 0.356289 -0.084677 0.162707 0.163814 0.502346 0.059928 -0.202173 0.018770 -0.364527 0.299734 0.386482 -0.158745 -0.044560 0.152633 -0.175295 0.204437 -0.386662 -2.388980 -0.367568 -0.047692 -0.030881 0.368635 -0.088731 -0.001997 0.090797 0.303169 0.134069 0.069346 -0.005996 0.327517 0.168282 -0.042686 -0.041044 -0.128908 0.138805 0.155388 -0.420436 0.273684 -0.146187 0.259755 0.002168 0.408937 0.016729 -0.478767 0.036641 0.089400 -0.037065 -0.177919 0.262764 0.020266 0.197574 0.731691 0.257572 -0.002755 0.053403 0.110545 0.023850 0.319893 0.041835 0.057534 -0.190656 0.180794 -0.170581 -0.221808 0.054778 -0.067794 -0.153957 0.154698 -0.261191 0.133180 -0.166877 -0.362469 -0.528130 0.040335 0.426367 0.024078 8.426967 -0.030144
OMIM600351 0.135976 0.016141 -0.196581 -0.048486 0.284516 0.410187 0.446874 0.049397 0.040199 -0.479235 0.449125 0.059469 -0.086701 0.543636 -0.091754 -0.363297 0.037023 0.064075 0.038034 0.492506 0.184981 -0.159528 0.015785 -0.196370 -0.038202 -0.185457 -0.105175 0.277354 0.050301 0.083407 -0.381130 -0.193600 -0.055867 -0.017500 0.111606 0.094425 -0.029413 0.856639 -0.314663 0.007758 -0.189045 -0.584352 -0.007591 -0.039574 -0.035993 -0.307256 -0.159645 0.244932 0.537994 -0.041155 -0.147956 0.166706 -0.020092 -0.140755 -0.096017 0.316739 0.232412 0.264187 0.196262 -0.048440 -0.214747 -0.169464 0.033792 -0.151764 0.127902 -0.132381 0.067942 0.164216 0.153404 -0.001701 0.068383 -0.134193 -0.033393 0.071260 -0.012963 -0.069184 0.040892 0.011434 0.026415 0.476796 8.118318 -0.553168 -0.454094 0.161374 0.125563 0.302036 0.357157 -0.131469 -0.330104 0.100350
OMIM236000 0.139605 -0.154045 -0.425648 0.271311 0.118404 0.508740 0.358653 -0.105772 0.032097 -0.212724 -0.408659 0.168002 0.220759 -0.314499 -0.253870 -0.316661 0.585355 0.137652 0.061049 -0.262540 -0.404997 0.062726 0.395291 -0.139843 -0.091919 -0.186605 -0.228529 0.030547 -0.267700 0.325868 -0.480510 0.019395 0.006141 -0.025337 -0.007799 0.061562 -0.018521 -0.093315 0.297803 0.035892 0.528689 0.431481 0.426485 0.091752 -0.074663 -0.003387 0.277182 0.157101 -0.049505 0.209291 -0.085324 0.108496 -0.024043 0.293188 0.239737 -0.236166 -0.233340 0.147255 -0.264281 0.072904 0.193039 0.022658 0.096955 0.333432 0.198887 -0.045980 0.050971 -0.011257 -0.000251 0.192854 0.087720 0.304266 -0.266804 0.610067 0.072702 -0.281252 0.083098 0.142679 -0.221216 0.035998 7.206954 -0.075571 -0.158104 -0.369291 -0.527433 -0.050713 0.078370 0.003774 -0.160067 -0.094452
DB00620 0.500541 0.174713 0.125154 0.327820 0.197050 0.379207 -0.381983 -0.020135 0.114345 -0.212396 0.737679 1.272452 -0.132467 0.114456 0.423422 -0.400138 0.185249 0.381704 0.048266 -0.200701 0.152702 0.354270 0.431661 -0.514238 -0.069423 -0.182405 0.219751 -0.427296 -0.101635 -5.328317 -0.314356 -0.017209 -0.135733 0.165973 -0.086685 -0.023551 0.042495 -0.275131 -0.419362 0.038746 -0.555006 -0.014407 -0.156761 0.186176 -0.032754 -0.288008 0.197098 0.257630 0.227149 0.074742 0.160484 -0.024541 -0.120924 0.042528 0.037605 0.225480 -0.037881 0.066728 -0.095013 0.052265 0.094636 0.097419 -0.460035 0.323418 0.285730 0.506016 0.024935 0.374199 0.019184 0.013670 0.021438 -0.383511 0.121328 -0.317043 0.095131 0.248861 0.046447 -0.401117 0.230825 -0.168513 -0.297230 0.050304 0.264322 0.177346 -0.179913 -0.191463 0.158377 -0.519350 5.867198 0.008147
OMIM125850 -0.252198 -0.115590 0.011851 0.225356 -0.101049 -0.003049 -0.162543 0.000331 -0.116664 -0.218363 0.017495 -0.505368 -0.359182 0.089734 0.191850 0.080594 -0.610522 -0.179270 -0.070837 -0.062150 -0.450156 0.612111 0.436928 0.026198 -0.049705 -0.136956 -0.080373 -0.189785 -0.209097 0.160311 0.173969 -0.663150 0.292899 0.153255 0.027542 0.065968 -0.113562 0.061546 -0.051211 0.038280 -0.023733 0.276102 0.286821 0.305851 0.029775 0.490381 -0.280200 0.253892 0.125082 0.248022 0.305672 0.251055 -0.003055 0.004941 -0.044507 0.086428 0.164320 -0.215238 0.225007 -0.346467 -0.333525 0.122934 -0.135973 -0.211432 -0.215947 -0.148304 0.073391 -0.217692 0.063909 0.254988 0.021379 0.153050 0.214941 0.035101 0.399875 0.466650 0.068242 0.027041 0.084742 0.509833 8.735330 0.031737 -0.343762 -0.070416 0.345577 -0.246868 -0.358057 0.201348 -0.343863 -0.321144
OMIM604416 -0.100151 -0.418089 -0.112274 0.399932 0.239810 -0.321553 -0.211999 0.826245 0.402242 -0.438158 -0.399673 0.230913 0.239418 0.133058 -0.211325 -0.108062 0.214594 0.074202 0.074324 0.527739 0.058816 -0.150638 0.291192 0.464898 -0.029452 0.282784 0.279103 0.123957 0.973261 0.194747 -0.389322 -0.853072 -0.033932 -0.124392 0.021620 0.045890 0.620789 0.119246 -0.150671 0.051542 0.156498 0.251042 -0.494197 -0.385817 0.104722 0.166730 -0.079386 -0.022107 0.224866 -0.137776 -0.099251 0.119954 -0.154856 0.232048 -0.141728 0.282994 -0.200761 -0.303107 -0.255791 0.141325 -0.019985 -0.155075 0.426332 0.050337 -0.215564 0.436405 0.031101 0.524792 0.278786 -0.206976 -0.347083 0.099296 0.375472 0.091139 -0.291292 0.341992 0.056531 -0.048685 0.225469 -0.012159 6.563136 0.097261 0.012031 0.113909 0.002169 0.420429 -0.260338 -0.202538 -0.238101 -0.231748
OMIM125851 -0.233965 -0.092800 -0.080592 0.192115 -0.067979 -0.014244 -0.171893 -0.005154 -0.064637 -0.240661 0.046505 -0.511554 -0.381750 0.034914 0.221514 0.029450 -0.607610 -0.143229 -0.038324 -0.106057 -0.464663 0.655631 0.387698 0.088781 -0.055208 -0.064999 -0.133910 -0.066114 -0.193128 0.177040 0.089902 -0.670643 0.267128 0.140501 0.016510 0.062253 -0.132048 0.111397 -0.058354 0.037290 0.001412 0.278698 0.252200 0.361073 0.001788 0.490817 -0.297613 0.318571 0.117839 0.243583 0.344245 0.284380 -0.070055 -0.000420 -0.024311 0.117208 0.144672 -0.281089 0.164438 -0.300957 -0.266416 0.127953 -0.167206 -0.218438 -0.253944 -0.149830 0.087446 -0.269437 0.097759 0.260772 0.059572 0.194976 0.213786 -0.016324 0.410178 0.378317 0.068546 0.057718 0.033649 0.525062 8.795462 0.053709 -0.287205 -0.032716 0.366827 -0.205318 -0.497889 0.256234 -0.326982 -0.259519
OMIM137750 0.441202 -0.349556 -0.108905 -0.455942 0.353757 0.145265 0.145824 0.138917 0.119673 0.388352 -0.218467 -0.165944 -0.125961 -0.488656 0.331572 -0.248910 -0.198640 -0.184258 0.216892 -0.375532 0.161523 -0.028932 -0.247624 0.489823 -0.031501 0.709251 -0.279559 -0.641736 0.022044 0.263310 0.108031 0.208898 -0.397789 0.012984 0.178590 0.154825 0.680692 -0.237628 0.456260 0.039873 0.019385 -0.223955 0.247275 -0.124252 0.000477 -0.085468 0.010233 0.252445 0.058463 0.305814 0.169183 -0.024165 0.287283 -0.492432 0.254241 -0.013964 -0.390802 0.057381 0.286327 -0.135825 -0.229799 -0.108457 -0.128224 -0.338640 -0.148470 0.102277 0.086741 -0.461957 -0.145377 0.057317 -0.246722 -0.349371 -0.051641 -0.193453 -0.463193 0.003348 0.051247 0.345408 0.060718 0.471430 7.784961 0.004752 -0.373170 0.067288 -0.032022 0.405990 0.182650 -0.314356 -0.236346 0.073296
OMIM607554 0.401015 -0.109506 -0.224923 0.481909 0.136596 -0.120515 -0.064301 -0.051325 0.018908 0.254885 -0.199766 -0.279360 0.201683 -0.201740 0.155844 0.307968 -0.276387 -0.176270 -0.214527 -0.214249 0.057031 -0.199397 -0.550487 0.228237 -0.073144 0.011157 0.060788 0.651997 0.000098 0.272669 0.330486 -0.095481 -0.056736 -0.059183 0.110477 0.059254 0.253845 0.398609 -0.127696 0.123708 -0.161860 0.045530 -0.049653 0.309400 -0.382128 0.068449 -0.043836 -0.119069 -0.428438 -0.430190 0.109279 -0.355883 0.001990 0.468820 -0.075769 -0.308808 -0.635142 0.667457 0.560649 0.014370 0.522963 0.482551 -0.412935 -0.418061 0.200590 0.255560 0.015109 0.068312 -0.544184 0.325015 -0.409418 0.147641 0.359723 0.088484 0.534748 -0.137093 0.058769 -0.418793 0.537800 0.524345 7.582665 -0.026556 -0.305546 0.098917 0.053564 0.127529 -0.248347 -0.105428 -0.223510 0.045522
OMIM109350 -0.375313 0.246216 -0.190798 -0.179788 -0.322603 0.025981 0.135082 0.047285 0.228625 0.145251 0.093684 0.065196 -0.116134 -0.582356 -0.028361 0.546561 0.269018 -0.035677 0.038194 -0.318645 0.044812 -0.141412 -0.307684 0.034233 -0.065167 -0.598720 0.177160 -0.726370 -0.257317 0.231515 0.121048 -0.860868 0.005247 -0.248387 0.054654 0.066624 0.238368 0.525159 0.206680 0.072368 0.003125 -0.063935 0.369632 0.320964 0.010523 -0.538343 -0.246490 -0.674992 -0.205740 -0.183402 -0.551736 -0.152998 0.366281 -0.414547 -0.459679 -0.052055 0.320685 -0.009946 0.008508 0.075802 0.638760 -0.151260 0.027457 -0.044354 0.128076 -0.239517 0.059110 0.334665 -0.204728 -0.153536 0.287119 -0.151937 0.183767 0.044092 -0.109204 0.025358 0.069987 0.189879 0.373655 -0.051342 8.629533 0.043089 0.017368 -0.097651 0.391652 0.154474 -0.137495 0.217716 -0.249629 -0.014840
OMIM210050 0.297300 0.469967 0.372933 -0.364388 0.015651 -0.205326 -0.201712 0.326048 0.017746 -0.501458 -0.183752 -0.225570 -0.227514 0.477324 0.201579 0.166816 -0.069678 -0.487499 -0.132813 -0.294875 0.390071 -0.128487 0.169019 0.333150 -0.033286 -0.411191 0.207138 0.383652 0.064047 0.250150 -0.327511 -0.032116 0.002656 -0.530478 0.040018 0.055394 -0.654358 0.434264 0.088138 0.048806 0.206990 -0.656236 0.119098 -0.151937 0.050449 -0.384651 -0.292947 0.198358 0.403868 -0.011573 -0.171647 -0.104962 0.060690 -0.202228 0.247017 -0.295386 -0.074794 -0.533004 0.219268 0.234386 -0.207484 -0.301059 0.078501 -0.273751 0.421973 -0.135608 0.066354 -0.280258 -0.071415 0.224411 -0.452943 -0.035506 0.031483 0.354825 -0.038597 0.308481 0.039769 0.050988 -0.247025 0.169251 7.102198 0.109538 -0.059942 -0.254087 -0.076199 0.220744 0.153056 -0.453398 -0.209853 0.397714
OMIM223350 0.246956 -0.298656 0.111804 -0.084578 -0.475369 0.123894 -0.129110 -0.205975 0.003105 -0.063329 0.457422 0.462431 0.155213 -0.155238 0.044392 -0.539985 0.479926 -0.080948 -0.321646 0.236970 -0.295142 0.386955 0.415166 -0.448487 -0.049369 -0.000435 -0.064997 -0.024098 -0.196556 0.269429 -0.533867 0.079403 -0.181089 0.161093 -0.054607 0.051758 0.031362 0.266024 -0.320831 -0.011958 -0.456182 0.393687 0.155801 0.095381 -0.009994 -0.199074 0.079174 0.214803 -0.153316 0.239997 -0.104453 -0.188117 -0.025980 -0.064081 -0.025464 -0.362036 0.185968 -0.420165 0.404012 -0.002630 0.303753 -0.193323 -0.292568 0.503079 0.185757 0.375793 0.075605 0.234415 0.088917 0.459551 -0.010153 -0.116196 -0.230284 0.200733 -0.133043 0.056739 0.077626 -0.717274 -0.167490 0.048200 6.476512 0.006458 -0.031076 -0.167062 -0.607136 0.186922 0.113134 0.042950 -0.166607 0.041661
OMIM102500 -0.384739 0.208496 0.264065 0.129151 0.154562 0.348639 -0.303422 -0.275611 0.218722 0.512010 -0.254058 -0.023070 0.132362 0.008934 -0.297571 -0.400569 0.286707 -0.124096 0.220334 -0.033303 -0.401805 -0.112816 0.292439 0.235429 -0.045419 0.588747 0.152645 -0.100855 0.483131 0.154870 -0.124378 -0.249643 0.221575 0.023275 0.000809 0.048526 -0.187657 -0.028684 -0.258154 -0.003029 -0.331104 -0.062963 -0.134166 -0.351525 -0.323513 0.320793 0.044423 -0.396962 -0.108395 -0.540544 0.090615 -0.389195 -0.277428 0.143833 -0.052518 -0.034276 0.628793 0.013458 0.251381 0.826493 -0.106808 -0.092723 0.043078 0.344118 -0.566657 -0.357246 0.083064 0.104594 -0.166124 -0.492967 -0.189961 0.423323 0.078073 0.276758 -0.074962 0.080851 0.048990 0.079390 -0.169461 0.418870 7.121125 -0.189618 -0.268401 0.341538 0.142220 -0.040625 0.304362 -0.326823 -0.263223 0.271298
OMIM125320 0.085761 -0.271710 -0.059449 -0.227294 0.086740 -0.104484 -0.544966 -0.184663 -0.325981 0.208598 0.055321 0.005557 0.166601 -0.250303 0.118206 -0.026239 0.310982 0.067848 0.114629 0.469962 0.499374 0.455578 -0.105908 -0.061590 -0.076824 0.135834 -0.065983 0.371365 0.236471 0.269683 0.477212 -0.021178 0.556796 -0.080642 -0.019770 0.076166 -0.067314 0.168175 0.263884 0.042832 -0.113293 -0.372431 -0.182807 -0.349443 0.604369 0.200535 0.682942 -0.611571 0.054750 0.509178 0.093620 -0.040334 0.585047 -0.237893 0.326501 -0.181364 0.079533 0.065984 -0.216950 -0.174617 0.116352 -0.086350 -0.214171 -0.080492 0.090354 -0.184058 0.060301 0.014098 0.013227 -0.324289 0.122619 0.132040 0.081766 -0.084260 0.516979 0.363914 0.090375 -0.347818 -0.242010 0.002894 7.261971 0.004196 0.013879 -0.250886 0.357328 -0.119998 0.003543 0.184528 -0.182276 0.215505
OMIM143465 -0.266221 -0.128386 -0.036782 0.493203 0.165978 -0.378219 -0.263629 -0.495786 -0.256680 -0.323970 -0.500503 -0.026937 -0.392069 -0.369762 0.026683 -0.093580 -0.301453 0.382131 0.404219 -0.168031 -0.072278 -0.361718 -0.183462 0.002468 -0.025919 -0.254614 0.015487 0.277670 -0.452125 0.246361 -0.277817 -0.277552 -0.305208 -0.019231 0.045736 0.096050 0.137800 0.130239 0.110844 0.076845 0.076494 -0.146335 -0.142880 -0.003630 -0.167283 0.197443 0.106255 0.409861 -0.141574 -0.034707 0.602103 -0.437384 -0.525594 -0.434786 -0.598995 0.105080 -0.196545 -0.512710 0.097566 -0.362785 0.108284 0.013895 0.303068 -0.203368 -0.017286 0.089611 0.029071 -0.384276 0.019010 -0.462662 -0.136974 0.056634 -0.615823 -0.446041 0.386169 0.078759 0.064790 -0.552658 -0.207806 -0.369640 6.902534 0.024490 0.176829 0.325399 0.200704 0.138048 0.493619 0.253303 -0.211925 0.787744
OMIM167870 0.018529 -0.256669 -0.350531 -0.460365 -0.147426 -0.535571 0.060923 -0.506737 0.316240 -0.464424 -0.024053 -0.175287 -0.146934 -0.216764 -0.088430 -0.108137 -0.510833 0.623849 0.036842 0.011783 -0.233025 -0.141301 -0.161170 0.175002 -0.073612 -0.117853 0.258955 -0.185917 -0.141141 0.129231 0.297775 0.083802 -0.414347 0.174986 -0.009860 0.041859 -0.158763 -0.048476 0.081062 0.086004 0.004107 -0.066807 -0.284956 -0.059699 0.290063 0.127529 0.412626 0.141342 0.018353 -0.265810 -0.049283 -0.414988 -0.404932 0.202896 -0.294514 0.418514 -0.134024 -0.153401 0.179631 -0.383809 0.303064 0.194552 0.197232 -0.109773 0.013437 0.125604 0.028132 -0.239908 0.199024 -0.125520 0.005404 0.304235 -0.575914 0.692466 0.104977 -0.005664 0.071634 0.320345 0.485235 -0.356744 7.978660 0.353864 0.139614 -0.028530 0.240956 0.049105 0.389243 0.038768 -0.312242 0.624615
OMIM200170 -0.110103 0.296449 0.121659 -0.194583 -0.129785 0.240663 -0.166151 -0.180329 -0.190562 -0.400332 -0.372580 -0.417992 0.240581 -0.017220 -0.429414 -0.487830 -0.342054 0.118457 -0.119424 -0.142832 0.152480 0.371659 -0.246252 0.321376 -0.040633 0.396147 -0.383135 -0.175034 0.330542 0.232591 -0.614859 0.224067 0.351272 -0.160147 0.050260 0.058411 -0.553538 -0.116458 -0.127427 0.060637 -0.141976 -0.052785 -0.128887 0.002229 -0.154073 -0.284361 0.077480 -0.838674 -0.484933 -0.067777 0.183416 0.127107 0.128208 -0.190637 -0.496186 -0.036859 -0.699681 0.050854 0.477890 -0.125477 0.262137 0.342402 0.086499 0.094242 0.306070 0.290475 0.047309 0.003819 0.363240 0.445071 0.113982 -0.149753 0.131955 -0.326496 0.316154 0.282170 0.050165 0.179910 -0.149612 0.002894 7.623107 -0.670952 0.159543 -0.018032 0.237639 0.108799 -0.593142 0.137837 -0.231397 -0.159085
DB00945 0.308560 0.034727 0.052604 0.250318 0.050190 0.040626 0.714504 -0.015588 -0.291197 0.068688 -0.153215 -2.561370 0.157547 0.458165 0.299363 0.174074 -0.643039 0.157172 -0.199215 0.199079 -0.060020 0.138647 -0.306570 -0.198777 -0.075861 0.135631 -0.098458 -0.083023 -0.175111 -6.218816 -0.225859 -0.096612 -0.002875 -0.205469 -0.025033 0.005238 0.025217 0.040255 -0.192968 -0.018915 -0.288873 0.239261 -0.146591 0.201156 -0.129937 -0.093538 0.001832 -0.165812 -0.096938 0.046282 -0.059012 0.098553 0.196708 0.076698 0.208616 0.264649 -0.067239 0.006537 -0.469543 0.403318 0.133596 -0.120099 -0.245658 -0.568195 -0.076098 -0.033093 0.057232 0.031643 0.071691 -0.417047 0.176344 0.081011 0.416148 -0.005021 -0.292623 -0.629039 0.055902 -0.021584 -0.124873 -0.365203 -0.207210 0.245316 0.350818 0.087091 -0.357132 -0.119039 -0.001565 -0.037620 5.207701 0.187305
OMIM300125 -0.646049 0.063042 -0.285023 0.075052 -0.047013 -0.660372 0.160154 0.094603 0.210200 -0.289909 0.137114 0.148873 -0.040143 -0.232099 -0.052195 -0.108046 -0.170309 -0.152014 -0.154355 -0.059069 0.093905 -0.115873 -0.280437 0.053578 -0.067718 0.519589 0.282590 -0.188334 0.152413 0.221147 0.036392 0.064570 -0.596466 0.120870 0.060808 0.072927 -0.467548 -0.081966 -0.144616 0.070263 -0.185458 0.274242 -0.456799 -0.012943 -0.447115 -0.102806 0.032835 -0.137975 -0.040993 0.525180 0.189728 -0.086188 0.562007 -0.239809 0.762896 -0.190839 0.312823 0.340400 -0.205704 -0.164566 0.030633 0.345547 -0.103054 -0.440378 0.253431 -0.267442 0.042414 -0.167451 0.167051 -0.013013 -0.179311 -0.510493 -0.010997 0.459469 -0.089325 -0.257923 0.064283 -0.119821 -0.061849 -0.198666 7.149076 -0.003946 0.071887 0.343070 0.117778 -0.219518 0.122881 0.207408 -0.248673 -0.399102
DB00788 0.200824 -0.008974 -0.164476 0.083597 -0.169076 0.282046 0.530078 -0.013658 -0.267981 0.102688 0.057631 -2.898897 0.012162 -0.076263 -0.072803 0.190945 -0.644685 0.087619 -0.120567 -0.084216 -0.128720 0.138890 -0.202318 0.005323 -0.048629 0.304872 0.268920 -0.101537 -0.230348 -6.433136 -0.177941 -0.004703 -0.038980 -0.147717 -0.044021 0.043615 -0.046718 -0.090197 -0.351829 -0.009788 -0.370046 -0.044780 -0.150698 0.001057 0.095751 -0.078096 0.002823 0.124194 0.227672 0.046729 -0.039856 0.052305 0.235032 0.264825 0.216445 0.141702 0.192273 0.161056 -0.299035 0.335068 0.076973 -0.138640 0.296946 -0.389496 0.267268 0.159180 0.063852 0.225042 -0.195645 -0.209447 -0.059868 0.124053 0.356395 -0.150690 -0.049632 -0.428502 0.071870 0.141853 0.212418 -0.414649 -0.215873 0.104094 0.519983 0.100447 -0.315893 -0.076429 -0.032759 0.006383 5.619614 0.350480
OMIM608088 -0.040888 -0.244062 0.176135 -0.056134 -0.102130 0.322949 -0.887539 0.032411 -0.710483 -0.194622 0.001069 0.055139 -0.123144 0.063269 -0.396027 0.275100 -0.227813 -0.754763 0.296298 0.476679 0.490124 -0.382456 -0.105968 -0.073332 -0.027104 0.041551 0.117597 -0.460528 -0.234092 0.328850 0.563214 -0.188664 -0.098077 -0.088607 -0.007777 0.061564 0.100715 0.019084 -0.146458 0.087862 0.617622 0.116019 0.171487 -0.180678 0.069826 -0.127476 0.323329 -0.143299 0.073818 0.177685 0.330356 0.550107 -1.009713 -0.095398 0.228718 -0.378107 -0.176420 0.039674 -0.120810 0.332031 -0.050443 0.117249 -0.563981 0.150957 -0.135843 0.068579 0.052105 -0.539587 -0.038690 -0.007339 -0.015732 -0.153084 0.123759 0.192409 0.239371 0.025871 0.095058 0.340137 0.312731 -0.460803 5.998352 -0.489643 0.213096 0.239376 -0.097383 0.211805 -0.039876 0.331826 -0.139379 0.140883
OMIM147540 0.760416 0.310959 0.251711 0.102966 0.068909 0.139050 -0.472751 0.071007 0.187559 -0.424323 0.465078 0.487951 -0.049494 -0.059120 -0.002798 -0.040806 -0.059755 0.185146 -0.116773 0.189774 0.364056 0.013795 0.108437 -0.029269 -0.075518 0.023116 -0.289139 -0.625787 0.371097 0.244781 0.397543 0.005635 0.051355 0.132892 0.013934 0.059872 0.303054 -0.090123 -0.153662 0.028068 0.214379 0.240307 -0.161040 -0.125138 -0.169089 -0.411006 -0.015939 0.507507 0.237095 0.422531 0.530000 0.197989 -0.100661 0.464637 -0.136253 -0.531429 0.175666 0.141609 -0.091211 0.038225 0.016477 0.147140 -0.575707 -0.058390 0.188370 -0.031390 0.057244 -0.286487 0.067793 -0.051019 0.348904 -0.540144 -0.157224 -0.317819 0.240671 0.002775 0.055869 0.303092 0.057682 -0.377774 6.454635 -0.737121 0.089342 0.429344 -0.008936 0.115434 -0.128689 -0.093735 -0.179195 0.550106
DB00909 -0.131581 -0.108876 0.328369 0.034176 0.126146 0.189679 2.174083 -0.007462 0.246577 0.189885 -0.224654 1.417945 -0.269830 -0.011729 0.096604 0.033542 0.520230 -0.197640 0.096247 0.138780 0.121103 0.917734 -0.496235 -0.006727 -0.069351 -0.213633 0.060808 0.083147 -0.026520 -8.251866 0.131761 0.276921 -0.342365 -0.092528 -0.071260 -0.013431 0.048507 -0.122602 -0.010391 0.071989 0.037543 -0.285253 0.057920 -0.183479 0.062824 0.437903 -0.411954 0.129700 0.049147 -0.059028 0.014967 0.010610 -0.107705 0.133162 -0.092470 -0.039458 -0.264703 -0.006431 0.050845 -0.117470 -0.505449 0.208709 -0.193635 0.049147 -0.197923 0.048708 0.038688 0.387519 0.047190 0.138241 -0.157454 0.077414 0.013078 0.051210 -0.035701 -0.640379 0.050634 0.134568 -0.018964 -0.381557 -0.260222 -0.035100 0.283039 -0.030997 0.379339 -0.147894 -0.098615 -0.015535 6.140945 -0.069708
DB01174 0.043408 0.363614 0.215328 -0.210377 0.201196 -0.138063 1.645781 0.169993 -0.034502 -0.084803 -0.054117 0.752538 -0.184627 0.142601 -0.389420 0.020685 0.525289 0.088311 -0.331207 -0.170621 -0.099712 -0.315251 -0.264031 0.058875 -0.094914 0.111129 0.118647 -0.299376 -0.130185 -8.712499 0.110009 0.092806 0.097915 0.386271 -0.055742 0.021228 -0.012859 -0.093743 -0.015740 0.064198 -0.002516 0.015263 0.539073 -0.172477 0.940034 0.285231 -0.752643 -0.020045 -0.023892 -0.094449 0.152433 -0.042858 -0.177006 0.089904 0.334752 0.159423 -0.100331 0.060942 0.065383 -0.153301 0.443105 0.133089 0.164958 0.094130 0.438203 0.176736 0.054243 -0.045397 -0.245181 -0.237869 0.106154 -0.198620 0.356819 -0.087684 -0.073053 -0.466559 0.066286 -0.414394 -0.488003 -0.136258 -0.323214 0.023362 0.093883 -0.051443 0.620928 -0.303045 -0.188351 0.126587 5.677410 0.116229
OMIM164230 0.152334 -0.201592 -0.686167 -0.391482 0.253849 -0.351251 -0.196869 -0.288843 0.483540 0.588117 -0.127141 -0.288667 -0.050919 -0.043515 0.034226 -0.519595 -0.697518 -0.000349 -0.024878 -0.208071 -0.042986 -0.105918 0.016511 -0.093029 -0.099202 -0.127640 0.160895 0.199704 -0.067852 0.199382 0.352220 -0.018145 -0.459794 0.236731 0.020962 0.065710 -0.284908 0.256389 0.353267 0.063912 -0.239291 0.045060 -0.110579 -0.323212 0.508768 0.337388 0.420483 0.033268 -0.289499 -0.124962 -0.318150 -0.345862 -0.527822 0.408829 -0.331586 0.038703 0.027507 -0.256525 0.072467 -0.444195 0.289931 0.062555 0.091246 -0.367652 -0.214804 0.364951 0.053904 -0.067451 0.415984 0.006767 0.070967 0.034894 -0.536388 -0.091954 -0.163110 0.075300 0.067539 0.500508 -0.046868 -0.265177 7.335656 -0.129567 0.144534 0.053347 0.153887 -0.179595 0.410472 0.115464 -0.265184 0.288937
DB00328 0.162971 -0.245072 -0.279661 -0.027105 -0.456719 0.377962 1.248932 0.248210 -0.471736 0.122181 0.024720 -1.917100 -0.132652 0.018913 -0.341606 -0.130284 -0.485409 0.020573 0.110799 -0.489960 -0.102945 0.292893 -0.144525 -0.117469 -0.038780 0.157254 0.339586 0.240294 -0.019895 -6.629210 -0.256267 -0.078558 0.166641 0.008608 -0.044673 0.023609 0.253231 -0.129138 -0.339116 -0.039577 -0.134863 -0.094654 -0.061405 0.013538 0.030590 -0.137982 -0.014404 0.069320 0.278250 0.167612 -0.068994 0.222253 0.129896 0.171436 0.267373 0.387711 0.138923 0.302658 -0.237579 0.257981 -0.062161 -0.232829 0.260013 -0.328505 0.333818 -0.217978 0.065823 0.335595 -0.116002 0.113166 -0.001584 -0.146033 0.051230 -0.243527 -0.081038 -0.654496 0.060273 -0.079471 -0.017919 -0.348524 -0.195210 0.084433 0.420457 0.167625 -0.326818 -0.057596 -0.002304 0.008247 5.196332 0.108136
OMIM233810 -0.229646 -0.222597 0.461431 -0.349150 0.291177 -0.113748 -0.305890 -0.539274 -0.036486 0.253052 0.360771 0.621747 -0.073366 0.285933 0.354482 -0.191575 0.261539 0.048566 0.430387 -0.127135 0.218631 -0.226620 0.443533 0.150639 -0.029513 -0.081729 0.602400 -0.164036 -0.005957 0.251337 -0.042650 -0.187505 -0.083570 -0.487034 -0.037626 0.066431 -0.053876 -0.011690 -0.200720 0.007917 -0.365545 0.278562 -0.220601 0.251876 0.309911 -0.278184 -0.145139 0.396790 -0.154276 0.078915 -0.162989 0.209229 -0.123411 -0.055512 -0.156005 0.423022 -0.009507 0.809401 0.388577 -0.087500 -0.050479 0.093168 -0.261197 0.247116 0.338398 -0.144242 0.067924 -0.323459 0.415461 0.005482 0.224602 0.584900 0.010639 -0.090024 0.078543 -0.039155 0.070201 -0.427443 -0.152840 -0.202584 6.298827 0.080349 0.079162 0.052947 -0.363402 0.089373 -0.195789 -0.811319 -0.194646 -0.198052
OMIM252320 0.287537 -0.281934 -0.330337 -0.510226 -0.164606 0.282771 -0.315200 -0.276517 0.495496 -0.045693 0.405677 -0.407664 -0.019276 -0.241933 -0.135629 0.245929 -0.553343 0.476160 0.045286 -0.052820 -0.180804 -0.004063 -0.263088 0.410648 -0.076855 0.204714 0.086045 -0.056759 -0.439840 0.176995 0.306713 0.035578 -0.052485 0.033206 -0.030358 0.016056 -0.758345 -0.304924 -0.493632 0.060354 -0.217284 0.156725 -0.056361 -0.017946 0.121027 -0.063919 0.227448 0.563581 0.445052 -0.323979 -0.076230 -0.191423 -0.051200 0.084466 -0.086848 -0.099336 -0.071691 -0.380343 -0.011682 -0.331743 0.100597 0.117324 0.632340 0.198135 0.121054 0.148259 0.025707 -0.057352 -0.115099 -0.287844 -0.047791 0.542899 0.196232 0.288230 0.100422 0.035661 0.068964 0.249345 0.325594 -0.503652 7.248505 0.215403 0.214965 0.062484 -0.012515 0.215170 0.307222 -0.150435 -0.249529 0.575095
DB01068 0.240078 -0.024479 0.009235 0.119198 -0.293254 -0.324556 0.893365 -0.239580 -0.170765 -0.585554 0.358673 -1.873416 -0.018209 0.076786 -0.509633 -0.171843 -0.585665 0.310852 -0.001170 -0.192398 -0.181325 0.370586 -0.189384 0.297573 -0.065303 -0.344303 -0.243975 -0.112164 0.074775 -6.296472 0.444791 0.115517 0.108981 -0.192134 -0.043193 0.005341 0.243065 -0.044601 0.053012 0.057457 0.322486 -0.290300 -0.278805 0.003155 0.322181 0.089036 0.429538 0.057747 0.140857 -0.077231 -0.268643 -0.441165 0.019245 0.178282 -0.030551 0.000496 0.166166 0.210910 0.475970 0.077633 -0.181031 0.046567 0.086510 -0.011265 0.010221 -0.107719 0.017525 0.169318 0.279762 -0.099585 -0.300620 0.392147 -0.178498 0.151099 -0.337289 -0.598363 0.057380 -0.088134 0.366976 -0.316770 -0.190214 0.263944 0.422265 -0.442317 -0.143265 -0.202398 0.077778 0.049614 4.801384 0.226061
OMIM115000 0.300044 0.087686 0.038898 0.123264 -0.186137 0.462936 -0.311379 -0.293868 -0.096854 -0.341764 -0.127401 -0.139200 0.131425 -0.367822 0.290307 0.351348 -0.200330 0.036294 0.414215 -0.537778 0.291441 -0.261033 -0.358682 0.473982 -0.057367 0.122001 0.166384 0.752961 0.908154 0.303585 0.281907 -0.001131 -0.265196 0.311241 0.059032 0.049261 -0.371076 -0.186094 0.117989 0.047786 -0.150738 0.218567 0.055937 0.385430 -0.243454 0.011036 -0.308122 -0.283240 0.536926 -0.509497 0.128686 -0.081424 -0.085256 -0.421618 -0.162051 -0.274965 0.165761 -0.088589 -0.017927 0.278291 0.399844 0.402748 -0.563202 -0.041544 -0.189709 0.521813 0.028394 -0.084785 -0.263544 0.474091 -0.275734 -0.363118 -0.118966 0.355285 0.391069 -0.358470 0.059895 -0.480051 -0.219390 0.324924 6.562067 -0.002853 -0.036909 -0.342496 0.114972 0.130803 -0.447335 -0.266640 -0.165397 -0.339157
OMIM168600 -0.107141 -0.246316 -0.111870 0.063808 -0.187429 0.169402 -0.331274 0.017120 -0.445545 0.080105 0.227758 -0.006263 -0.230727 0.151378 0.663324 0.011013 0.322761 0.113469 0.398390 0.220111 0.337928 0.215217 -0.207202 0.291785 -0.078133 -0.089241 0.065137 0.252647 0.312876 0.279147 0.404029 0.085949 0.631528 0.320886 -0.020159 0.053962 0.361181 -0.006539 -0.020785 0.021218 0.308534 -0.049042 -0.031183 -0.161157 0.505793 0.021691 0.770818 -0.222226 -0.361759 0.132551 0.006385 -0.557162 0.418856 -0.229680 0.568005 -0.158906 0.032460 0.028996 -0.015872 -0.128360 -0.035451 -0.285258 0.040963 -0.086589 0.174668 0.045339 0.078285 -0.048139 0.110046 -0.007872 0.350961 0.267917 0.390940 0.045915 0.461515 0.236049 0.096417 0.030127 -0.264674 0.065332 7.623145 -0.014044 0.119952 -0.181349 0.307778 -0.009733 0.199731 0.432666 -0.203409 0.063816
OMIM608583 0.278531 -0.205197 0.051891 0.352493 0.300397 -0.063108 -0.130522 -0.212483 0.048718 0.143460 -0.295014 -0.185905 0.301523 -0.193621 0.098873 0.120558 -0.199660 -0.203645 -0.228171 -0.027310 0.042968 -0.388049 -0.495799 0.292832 -0.042873 0.087708 0.057811 0.696486 0.045372 0.264108 0.423212 -0.022702 0.066441 0.012602 0.097648 0.098526 0.189863 0.293947 -0.044799 0.039959 -0.154915 0.081248 0.057097 0.281283 -0.358225 0.046378 -0.136844 -0.183504 -0.221622 -0.418057 0.007193 -0.444628 -0.074991 0.345051 -0.108106 -0.265280 -0.358379 0.486588 0.306023 -0.116684 0.572412 0.547285 -0.418864 -0.325448 0.060963 0.251230 0.035795 0.025016 -0.439232 0.544008 -0.355350 0.024871 0.331387 0.241621 0.380279 -0.152745 0.043892 -0.435512 0.335428 0.461784 7.137640 0.148864 -0.270732 0.082857 -0.047470 0.088495 -0.400701 -0.144256 -0.224717 -0.125945
DB00695 0.243119 0.181599 0.052348 -0.057115 -0.025643 -0.087968 1.133966 -0.219344 -0.007405 -0.311625 0.211493 -1.897665 0.015335 0.467338 0.042411 -0.016722 -0.101261 -0.335230 -0.165960 0.381652 0.126867 -0.055190 -0.023547 0.144540 0.025745 -0.398975 0.010868 0.151387 0.112374 -6.599667 -0.272484 0.046842 -0.071920 -0.116866 -0.105034 -0.027359 -0.265318 0.452146 -0.016299 0.049954 0.162576 -0.633520 0.039815 -0.319878 -0.106008 -0.273027 -0.152355 0.227448 0.188012 -0.141392 0.074048 0.087056 -0.018940 -0.152572 0.097348 0.136683 0.099819 -0.001485 -0.073569 0.074405 -0.133950 -0.294537 0.283992 -0.139158 0.031026 -0.170892 0.042884 -0.076372 0.072623 0.003740 -0.154480 0.004460 0.131558 0.423982 -0.052329 -0.077063 0.058399 0.000477 0.001877 0.517096 -0.181873 -0.450713 -0.736507 -0.015075 0.082194 0.226488 0.368806 -0.287944 5.585568 0.057402
OMIM601682 0.262521 -0.154791 0.027280 -0.370302 0.334422 0.126032 0.247461 0.145548 0.077591 0.141875 -0.252604 -0.084663 -0.062765 -0.380064 0.178166 -0.168623 -0.215868 -0.135706 0.203349 -0.319693 0.289234 -0.064690 -0.082639 0.555445 -0.043032 0.499399 -0.491362 -0.600153 -0.001668 0.287260 0.247463 0.131725 -0.328993 0.029024 0.161500 0.148105 0.567343 -0.043675 0.372325 0.031318 -0.103539 -0.077246 0.208527 -0.206836 -0.218587 -0.124493 -0.069964 0.153479 0.113299 0.331977 0.288759 0.048895 0.242567 -0.612990 0.374432 -0.117823 -0.133167 -0.054752 0.275549 -0.161421 -0.137121 -0.166765 -0.189211 -0.280880 -0.056032 0.094706 0.077259 -0.362676 -0.159485 0.158460 -0.385660 -0.343728 -0.070240 -0.139370 -0.358835 -0.103580 0.044681 0.270617 -0.012739 0.384960 7.918165 0.178102 -0.402771 0.116785 0.072213 0.455603 0.335261 -0.368593 -0.220371 0.158528
OMIM137760 0.246414 -0.220930 -0.043645 -0.397760 0.298453 0.149339 0.254420 0.092535 0.105051 0.275041 -0.331671 -0.043569 -0.078664 -0.406774 0.252909 -0.138937 -0.179623 -0.135899 0.270481 -0.400846 0.300452 -0.021592 -0.067248 0.542101 -0.045423 0.613018 -0.561504 -0.596946 0.108953 0.290893 0.111145 0.194647 -0.285869 0.040511 0.170090 0.117891 0.631752 -0.166630 0.363635 0.037951 -0.102832 0.003551 0.257641 -0.146243 -0.164661 -0.198829 -0.022701 0.220650 0.041740 0.294172 0.299384 0.149151 0.270732 -0.481446 0.337736 -0.112875 -0.028244 0.011574 0.243154 -0.168706 -0.160953 -0.215854 -0.234744 -0.264946 -0.182439 0.104491 0.084128 -0.450260 -0.146135 0.057196 -0.416124 -0.257945 -0.002207 -0.163792 -0.395310 -0.104363 0.052450 0.338509 0.035686 0.375688 8.018554 0.176722 -0.286897 0.063084 0.044241 0.395461 0.245413 -0.307604 -0.210439 0.148903
DB00776 -0.101732 -0.170895 0.360288 -0.184053 0.292510 -0.058350 1.579545 -0.138207 0.056396 0.046959 -0.251539 1.409537 -0.313593 0.011602 0.073850 0.173001 0.579444 0.172358 -0.046609 0.025564 0.102803 0.847850 -0.429457 0.019029 -0.062610 -0.234274 -0.013971 0.032560 0.021014 -8.537356 0.208911 0.152312 -0.344920 -0.151487 -0.066821 0.010332 -0.051670 -0.035093 0.080491 0.050346 0.031468 -0.370667 0.126175 -0.032712 -0.019391 0.459879 -0.441173 0.074700 -0.054832 -0.111166 0.174026 0.000932 -0.172497 0.253481 -0.089405 -0.063913 -0.134754 -0.189661 -0.003584 -0.162274 -0.454447 0.232171 -0.095438 0.066983 -0.120908 0.200899 0.043258 0.401515 0.047862 -0.022864 -0.087448 0.215478 -0.077475 0.196502 0.070369 -0.613824 0.058573 0.197908 0.197832 -0.386596 -0.287774 0.033306 0.308626 0.069010 0.386018 -0.111935 0.045095 0.047483 5.984134 0.001018
OMIM264120 0.284689 -0.237552 0.039698 0.357206 0.054026 -0.135646 -0.013929 0.412882 0.042288 0.048241 -0.180301 0.318940 -0.341235 -0.114305 -0.181092 -0.066525 0.213830 -0.169743 0.202199 0.427865 0.025248 -0.038101 -0.132450 -0.125164 -0.075812 -0.097535 -0.172094 -0.317210 -0.416859 0.270801 0.097231 -0.646681 -0.624379 0.148411 -0.014146 0.057698 -0.278584 -0.095662 0.439524 0.051700 0.275790 0.160619 -0.364860 0.445390 0.029831 -0.506421 0.124752 -0.368172 -0.098826 -0.358993 0.158032 -0.247671 -0.296500 -0.166225 -0.501595 0.302394 0.336903 0.410370 -0.287470 -0.119803 -0.347868 0.079888 0.387075 -0.007394 0.149915 -0.190078 0.058601 -0.654914 -0.003660 0.033377 -0.143686 -0.297590 -0.120711 -0.121950 0.444420 0.003170 0.085005 -0.531252 -0.155698 -0.229646 7.754177 -0.205111 0.154228 0.171050 0.207819 0.201974 0.207802 0.513560 -0.209238 0.666470
OMIM179600 -0.250736 -0.691539 0.323936 -0.287275 -0.053954 0.244020 0.314709 0.150697 -0.011938 -0.703844 -0.037594 -0.218478 0.166556 -0.289450 -0.350426 0.299499 -0.280944 0.427159 -0.465153 -0.340087 0.310300 -0.082567 -0.247515 -0.024805 -0.071392 -0.100733 0.361584 0.246190 -0.214127 0.184654 0.021468 0.105671 -0.129060 0.347276 0.161151 0.127846 0.209506 -0.394332 -0.421328 0.095864 -0.097523 -0.094068 0.092550 -0.006947 -0.209648 -0.229104 0.064885 -0.336401 -0.601721 -0.112114 -0.369409 0.037257 -0.202445 -0.108439 -0.157880 0.065826 -0.032953 0.022139 -0.465489 -0.005724 0.095207 -0.008387 -0.070005 -0.321828 -0.407845 -0.272653 0.003092 0.251889 0.506573 0.597880 -0.005968 -0.040962 -0.056743 -0.563270 0.212471 -0.073397 0.065190 -0.198677 -0.639828 0.603447 8.082598 -0.274744 -0.457024 -0.102467 0.145632 0.408338 -0.162993 -0.202005 -0.282322 -0.040782
OMIM109543 0.038458 -0.178870 0.082380 0.236984 -0.154284 0.175811 0.454305 -0.509769 -0.059373 0.034787 0.139219 0.286781 0.172956 -0.456615 -0.219375 -0.114280 0.477467 -0.111588 -0.225078 -0.059036 -0.303820 0.079025 0.361399 -0.142738 -0.073845 0.261280 -0.392214 0.179175 -0.239965 0.345079 -0.445854 0.003228 0.139317 -0.064549 -0.017869 0.061723 0.159820 0.196833 0.316194 0.036187 0.743175 0.427808 0.188928 0.043955 0.051657 -0.200260 0.120227 0.076960 0.256706 0.195934 -0.463638 -0.153223 -0.114265 0.188793 0.261777 -0.021714 -0.120497 -0.194278 -0.244096 -0.233648 0.093512 0.066971 0.054660 0.283038 0.139589 0.068210 0.058762 0.061209 0.157104 0.398288 -0.014796 0.226934 -0.091065 0.222385 0.115872 -0.233248 0.077925 0.084491 -0.162557 0.135552 7.671517 0.115192 -0.091649 0.110184 -0.580255 -0.139257 0.102970 0.029534 -0.134196 -0.054926
OMIM239350 -0.003881 0.205554 -0.450755 -0.042938 -0.399613 0.228360 0.368926 -0.218482 0.260229 0.067286 -0.131557 0.275763 0.043860 0.502043 -0.402075 0.350820 0.335794 -0.317207 0.616158 -0.286372 0.090654 0.391182 -0.326231 -0.338619 -0.036805 0.118569 -0.010570 0.122898 -0.042754 0.167594 0.435229 0.333061 -0.258071 0.131667 -0.006093 0.094406 0.452905 0.047278 -0.403694 0.033009 -0.205949 -0.391233 -0.029970 -0.323219 0.074990 0.355477 -0.234131 0.146945 0.418544 0.147225 -0.327910 0.293671 0.224891 -0.229310 -0.266539 0.270019 -0.354357 -0.146300 -0.269207 -0.062780 -0.499983 0.131805 -0.330079 -0.026236 -0.020599 -0.358843 0.079678 0.348700 -0.300335 0.379446 -0.203422 0.189116 -0.245913 0.132229 0.225913 -0.308942 0.063749 -0.344130 -0.351539 -0.282226 7.904408 -0.006778 0.240281 -0.046124 0.479402 -0.145383 -0.179643 0.093705 -0.285297 0.018961
DB00571 -0.475561 0.020113 0.030777 0.142274 0.052640 -0.011941 0.795076 0.048441 0.120762 0.128519 0.140121 -1.681766 -0.149900 -0.555549 0.393283 -0.042817 -0.227406 -0.221990 0.230135 0.152516 0.140284 -0.032287 -0.350860 0.283755 0.020970 0.440485 0.249875 0.272346 0.104561 -3.653165 -0.058508 0.097827 -0.309224 0.291989 -0.101887 -0.000343 -0.453829 -0.315846 -0.030268 0.041453 0.005352 0.248856 -0.108251 -0.009687 -0.244990 -0.014738 -0.098955 0.223729 0.401968 -0.006686 0.003110 -0.140984 0.199653 -0.141985 0.178243 -0.350046 -0.253994 0.332512 -0.001368 0.009237 0.038812 0.323753 -0.192601 -0.201047 0.084735 -0.146297 0.040437 -0.035845 -0.030329 -0.210955 -0.191118 -0.641605 -0.106983 0.277676 -0.423673 -0.441995 0.046883 -0.443620 -0.034652 0.332988 -0.195533 -0.065940 -0.380435 -0.189127 0.151268 0.127218 -0.004711 -0.007255 6.769534 -0.381399
DB00860 0.019525 -0.135594 -0.048571 0.103860 0.348712 0.126551 -0.449183 -0.060902 -0.094517 -0.239307 0.774575 0.999311 0.048591 0.267095 0.104024 -0.205378 0.298241 0.338763 -0.098306 0.047953 0.055165 -0.083304 0.157780 0.005569 -0.041458 -0.221365 -0.288018 -0.017058 0.060975 -5.410841 -0.011587 -0.156412 -0.023741 0.086674 -0.016968 0.016080 0.131016 0.525891 -0.346192 0.048597 -0.435620 -0.180848 -0.083466 0.124860 -0.024001 -0.382628 -0.077726 0.222253 0.505534 -0.011331 -0.057565 0.219684 0.054938 0.298812 -0.102756 0.115315 0.174613 0.153428 0.155860 -0.175343 0.083696 -0.085226 -0.250269 0.322204 0.152752 -0.226725 0.036167 0.041862 -0.360019 -0.072292 0.376292 -0.387138 -0.285284 -0.343307 0.007553 -0.059204 0.034360 0.558322 0.219953 -0.081756 -0.291537 -0.565135 -0.326923 0.206890 -0.084273 0.004152 0.000038 -0.244850 5.779757 0.280321
DB00575 -0.211849 0.293615 -0.065315 0.365233 -0.102660 -0.180406 0.769307 0.043937 -0.165578 0.225513 -0.051715 -2.528067 0.015643 -0.338177 0.153970 -0.047747 -0.336437 0.205774 0.076774 -0.227468 0.147703 0.063253 -0.465763 0.521646 0.023011 -0.062200 -0.400878 0.151972 0.109215 -4.009985 -0.348399 -0.020881 0.004454 0.196015 -0.082798 0.012434 0.041522 0.230046 -0.069374 -0.008558 0.065849 -0.153687 -0.127665 -0.113784 0.021799 0.071914 0.185754 0.062238 -0.380640 0.049878 0.063155 -0.058175 -0.166024 -0.242769 -0.106335 -0.301188 -0.686474 0.071232 0.309158 -0.099398 0.137617 0.143655 0.017042 -0.417735 0.087039 0.130718 0.067266 -0.043582 0.120733 -0.300066 -0.282021 0.257491 -0.424842 -0.467771 0.172532 -0.135108 0.053515 -0.607481 0.388896 0.218806 -0.182542 -0.075965 -0.236693 0.117982 0.042049 0.123041 0.145201 -0.064882 6.651306 0.140197
OMIM254500 0.206933 0.177040 -0.030177 0.393461 0.082281 0.160302 0.164467 -0.629481 0.070024 -0.044020 -0.707507 0.267166 0.099255 -0.085084 0.170082 0.350288 0.513590 -0.174121 0.121515 -0.068081 -0.433084 -0.240016 0.319657 0.291890 -0.051362 0.240841 -0.095976 -0.186002 -0.097336 0.270088 -0.032276 0.038416 0.143957 0.515680 -0.029691 0.073873 -0.112622 0.341595 0.061819 0.007723 -0.378682 -0.010818 0.141654 0.118260 -0.098659 0.011215 0.165602 -0.031631 -0.330084 0.007457 0.206520 0.078538 -0.207067 0.453923 0.220535 0.002805 0.071826 -0.520873 -0.479009 0.013901 0.061298 0.195618 0.352611 0.275305 0.154203 -0.978896 0.086719 0.143531 0.271037 0.233163 -0.054020 -0.070307 0.103894 -0.168532 -0.060691 -0.159970 0.082377 0.315644 0.272849 0.261259 7.049480 -0.156941 -0.204495 -0.736623 -0.540925 -0.232094 0.337770 0.181290 -0.193310 -0.245154
DB01202 -0.101611 -0.190577 0.346184 -0.080523 -0.073022 0.048681 1.474182 -0.133608 0.124883 0.144554 -0.193478 1.218805 -0.333679 0.150423 0.020848 0.152123 0.605562 -0.104776 0.196472 0.051593 0.132574 0.833971 -0.396317 -0.014943 -0.066972 -0.150130 -0.093294 0.028712 0.026413 -8.395278 0.212887 0.324839 -0.310715 -0.140994 -0.088704 0.010508 0.127272 -0.089337 0.051811 0.065503 -0.036719 -0.357565 -0.005649 -0.027866 0.015552 0.411028 -0.387166 0.142403 0.008887 -0.232323 0.033349 0.288015 -0.084973 0.233105 -0.063465 -0.058710 -0.240686 -0.180812 -0.113096 -0.225199 -0.522145 0.142046 -0.064854 0.081356 -0.007422 -0.005801 0.039564 0.496726 0.008445 0.272460 -0.249862 0.209323 -0.169764 0.223355 -0.136786 -0.649186 0.061738 0.164239 0.124530 -0.304493 -0.288830 -0.015047 0.313971 0.133467 0.463596 -0.358617 -0.130429 0.051517 5.815139 0.091129
OMIM176807 -0.257735 -0.086125 -0.122969 -0.251448 0.235625 0.243019 0.081607 0.035615 -0.218457 -0.253540 0.341388 -0.115594 -0.172867 -0.022289 -0.025748 0.317944 0.462065 -0.144999 -0.206184 -0.321490 -0.414957 -0.304852 0.330269 -0.750464 -0.052218 -0.102096 -0.429881 -0.077985 0.762233 0.286847 0.009642 -0.159436 0.222726 0.201611 -0.026102 0.059267 -0.137604 -0.017407 0.496686 0.064297 0.134922 0.160112 -0.372573 -0.247003 -0.009444 0.474813 0.315508 -0.223567 0.522952 -0.156206 0.051978 -0.183000 0.085543 -0.041610 -0.025336 -0.343123 -0.362245 0.512671 0.085644 0.257976 -0.133657 0.381846 0.300250 0.232644 -0.141650 0.000696 0.045949 0.095454 0.052841 -0.162788 0.028253 0.137745 0.188831 -0.161567 0.135573 -0.075449 0.071132 0.416752 -0.277523 0.187271 7.315252 0.637241 -0.116162 0.427157 -0.309540 0.444012 -0.128622 0.165701 -0.200759 0.328786
DB00482 0.172037 0.043000 0.027287 -0.069484 -0.144671 -0.246338 1.307955 0.346750 -0.555051 -0.110262 -0.110423 -1.402589 -0.142495 -0.079126 0.126914 -0.221610 -0.479495 -0.010981 0.157007 0.298229 -0.138070 0.215187 0.037487 -0.614243 -0.071392 0.197090 0.107254 -0.145780 -0.063511 -5.765875 -0.269784 0.159738 0.215993 -0.031909 -0.065289 0.024834 0.173087 0.285997 -0.207500 -0.037023 0.441197 0.006430 -0.079750 0.024396 0.151219 -0.120000 -0.011977 -0.093200 -0.144169 -0.152107 0.033783 0.225390 0.194754 -0.145348 -0.120419 -0.137923 0.486894 -0.130145 0.123133 0.220826 0.168942 0.011516 0.178079 -0.018636 -0.101156 0.213500 0.056127 0.369826 -0.518969 0.190519 -0.138598 0.229936 -0.172757 -0.398242 -0.074934 -0.567597 0.067603 0.009066 0.197779 -0.304004 -0.222689 0.408442 0.382808 -0.292502 -0.431300 -0.230144 0.046630 -0.092575 5.530224 0.145312
DB01219 -0.083812 -0.137712 0.572869 -0.036174 0.217031 -0.008033 1.344340 0.289760 -0.325709 0.133386 -0.215958 -0.690097 0.824654 0.456645 -0.002641 0.102389 -0.027961 -0.021329 -0.070029 -0.026947 -0.182168 0.022659 -0.551966 0.075512 -0.045617 -0.384954 -0.482812 -0.117873 -0.314122 -7.669736 0.051528 -0.208220 0.566333 0.315580 -0.047595 0.018234 -0.151488 0.096187 0.115848 0.063641 -0.175880 0.465682 -0.393799 0.036410 -0.316022 -0.103940 0.194544 0.399847 0.086857 -0.456678 -0.231570 0.100532 0.283129 -0.166950 -0.146658 0.214947 -0.408074 -0.174541 0.090584 -0.030987 0.198487 -0.271279 -0.406435 -0.070186 0.093753 -0.178733 0.038810 -0.254383 0.148478 -0.355519 -0.028938 0.008096 -0.406847 -0.012059 -0.335146 -0.184480 0.060592 0.089705 -0.084378 0.009692 -0.255641 0.187814 -0.127830 0.337478 -0.002163 -0.534763 -0.077488 -0.044453 5.005120 -0.181862
OMIM104130 0.268840 0.671363 0.144016 0.487662 0.481945 -0.064517 0.217829 -0.079981 0.097472 -0.181795 0.462600 0.301259 0.282700 0.171132 0.008821 -0.076991 -0.033043 0.283209 0.467553 0.026051 0.164389 0.526259 -0.071843 -0.443906 -0.042224 0.249194 0.228054 -0.179169 0.013744 0.173038 -0.274737 0.079908 -0.438058 -0.002490 0.059104 0.076442 0.200480 -0.574585 0.178655 0.040176 -0.408397 -0.354222 -0.254826 -0.483995 0.439193 -0.031553 0.072491 -0.305927 0.636487 -0.235905 0.356520 -0.071295 0.016347 -0.342614 -0.254724 0.491328 -0.332216 -0.308094 -0.392688 0.072836 0.304827 0.097555 -0.279360 0.070562 -0.056457 0.121668 0.037524 0.154889 -0.018526 0.522749 0.271643 -0.026223 -0.272188 0.244398 0.437892 0.373069 0.035571 -0.164584 0.304173 0.000307 6.943548 0.310644 0.059750 -0.020124 0.126234 0.126376 0.084126 -0.271784 -0.253606 -0.735954
OMIM600263 -0.117449 0.134187 -0.525221 -0.218057 -0.092139 0.096865 -0.114055 -0.085597 0.249380 -0.091442 0.021022 -0.020328 -0.077714 -0.215795 -0.114225 0.403181 0.359438 -0.090206 0.001344 0.090300 0.076014 -0.120521 -0.003048 0.323192 -0.023075 -0.428662 0.260774 -0.071726 0.159040 0.227771 0.156191 -0.917825 0.065480 -0.209930 -0.028227 0.073889 0.337663 0.259872 0.293991 0.062448 0.344520 0.136130 0.299208 0.204742 0.424237 -0.574567 -0.314710 -0.261721 -0.224709 -0.119312 -0.161008 -0.006305 0.496579 -0.371266 -0.215212 -0.126687 0.009546 -0.289778 0.188435 0.174392 0.502675 -0.158080 0.285414 0.328744 -0.487055 -0.211642 0.060309 0.418417 0.214750 -0.045466 0.373876 -0.570407 0.097731 0.037768 -0.303858 -0.061825 0.088743 -0.035571 0.593965 -0.251549 7.805287 0.245357 0.201242 0.386111 0.383974 0.270574 -0.323521 0.107568 -0.229827 -0.111096
OMIM126200 -0.423085 -0.354515 0.404224 0.417806 0.263170 -0.037961 0.037542 -0.165647 -0.513585 0.654106 0.430622 0.490698 0.660283 -0.002275 -0.190839 0.185376 0.211528 0.154368 -0.269451 -0.108435 -0.047050 -0.112083 -0.031171 0.612969 -0.017601 -0.422633 -0.355157 0.135643 0.009454 0.141529 -0.285959 0.084063 0.176257 0.402130 -0.030836 0.084701 -0.006136 0.410491 0.096517 0.051289 0.032712 0.258184 -0.285504 0.186268 -0.029714 -0.284479 0.282114 0.532206 0.870319 -0.200655 -0.210654 0.028261 0.036407 0.168088 -0.091885 0.121158 -0.184550 -0.099212 -0.021183 -0.352074 0.174224 -0.240051 -0.398577 0.088150 -0.118945 -0.231710 0.031534 -0.102805 0.161807 -0.157459 0.272450 -0.279997 -0.381045 -0.394361 0.097840 0.072276 0.077183 0.379364 -0.289154 -0.073341 6.919706 0.231338 -0.040790 0.125118 -0.135388 -0.302033 0.051636 -0.192330 -0.252720 0.203704
DB00887 0.235961 0.278919 0.138494 -0.182711 -0.068607 -0.047816 1.242954 -0.095243 -0.018835 -0.300307 0.177805 -2.263033 0.005043 0.421914 0.040886 -0.089958 -0.110398 -0.281946 -0.241147 0.205126 0.257134 -0.123644 0.059385 0.088376 0.015391 -0.422404 -0.041047 0.186515 0.054944 -6.406685 -0.346359 -0.055911 -0.033020 -0.085535 -0.069901 -0.015414 -0.269295 0.436811 -0.084745 0.061795 0.202821 -0.705816 0.061626 -0.311015 -0.100584 -0.295912 -0.191324 0.157424 0.240532 -0.027561 0.094533 0.065966 -0.034280 -0.197081 0.101854 0.116621 0.054781 0.038822 0.020945 -0.001112 -0.204891 -0.238226 0.368404 -0.173211 -0.058120 -0.097305 0.058980 -0.096340 0.027775 0.038833 -0.124308 -0.035061 0.058218 0.335922 -0.089770 -0.029330 0.038709 -0.045416 -0.125752 0.511402 -0.179009 -0.333977 -0.742516 -0.031493 0.024865 0.124347 0.380022 -0.284465 6.116126 0.001717
OMIM102300 -0.173904 0.373224 0.220125 0.361218 -0.528409 -0.323782 0.041415 0.155267 -0.462743 -0.135901 0.723883 -0.015111 0.150989 -0.159013 0.416173 -0.190218 -0.034370 0.538452 0.402163 -0.071600 0.223511 0.423701 -0.346412 0.416379 -0.084735 -0.210294 -0.533459 0.144914 0.386979 0.163780 0.023229 0.121227 0.131653 0.368540 0.020091 0.047269 0.143415 0.121697 0.296252 0.100713 0.164252 0.005308 0.006313 -0.249840 0.467567 0.193494 0.533133 -0.318732 -0.256283 -0.002196 -0.096054 -0.486442 -0.088839 -0.249069 0.384509 -0.305196 -0.287745 0.483037 0.073952 -0.053381 -0.162094 -0.206679 0.056995 -0.144975 -0.205519 -0.165476 0.042296 0.196025 0.387666 -0.172608 -0.235012 0.569553 -0.194814 -0.218988 0.287848 0.000288 0.075877 -0.163597 0.601030 -0.191043 7.126990 0.207208 0.039170 -0.309982 0.212856 -0.120752 0.178896 0.083326 -0.244085 -0.039666
DB00282 0.066002 -0.107967 0.054230 0.128748 -0.182866 -0.008533 0.763551 -0.644800 0.030608 -0.122126 -0.331289 0.056056 0.249196 0.254910 0.239638 0.146874 0.313971 -0.369902 -0.177069 -0.165716 -0.417861 -0.192934 0.345048 0.381643 -0.046117 0.187819 0.140393 -0.169821 0.162157 -6.405700 0.054186 -0.004925 0.189405 0.264236 -0.038067 0.003638 -0.414208 -0.103563 0.165878 0.046333 -0.412310 -0.282996 -0.114928 -0.406352 -0.215697 0.018229 0.061785 -0.004258 -0.403344 -0.464609 0.065048 -0.052770 -0.133377 -0.049189 -0.008746 0.141976 0.532301 -0.329502 -0.075048 0.509832 -0.173371 -0.201758 0.078444 0.622568 -0.307907 -0.587726 0.047720 0.036687 -0.296062 -0.241115 -0.087714 0.110286 0.231816 -0.150648 0.143486 -0.196894 0.063001 0.266075 0.052741 0.311328 -0.276163 -0.494875 -0.469596 0.189405 -0.125950 -0.198949 0.287275 -0.134083 5.493751 -0.000234
OMIM125310 0.725057 -0.178032 0.344722 0.006421 -0.018709 -0.438870 -0.182880 0.099465 -0.159110 -0.128976 -0.219354 -0.180938 0.373542 0.523437 0.018336 0.101195 -0.248166 0.188308 -0.113399 0.128869 -0.014102 -0.067647 -0.727966 -0.431281 -0.079958 -0.530547 -0.158657 -0.056130 -0.349343 0.146495 0.112459 -0.116562 0.418628 -0.040916 0.104722 0.095556 0.144106 -0.168231 -0.170634 0.077433 -0.326494 0.566139 -0.107791 0.107354 -0.421752 0.009867 -0.129194 -0.192812 -0.320386 -0.159777 -0.118131 -0.216711 0.056002 -0.029156 -0.012934 0.226866 -0.537935 -0.073182 -0.431932 0.095320 0.124955 -0.170323 -0.318834 -0.447422 -0.206845 -0.353668 0.020058 -0.252681 0.365806 -0.422900 0.338587 -0.015614 0.004027 0.389456 -0.496741 -0.128089 0.060594 0.035014 -0.272939 0.380011 7.208785 0.450654 -0.202622 0.319380 -0.212382 -0.135348 -0.091168 -0.089605 -0.289163 -0.065398
DB00434 0.402958 0.150661 0.165517 0.200454 -0.174518 -0.404184 0.707685 0.128396 0.249724 -0.295125 0.109332 -0.016431 -0.154821 0.131283 -0.701329 -0.010828 -0.152320 0.211532 -0.097472 -0.465123 0.131891 -0.041665 -0.111176 0.068420 -0.057666 0.078859 -0.109823 -0.329246 0.276223 -5.160905 0.182839 0.054144 0.194928 0.125938 -0.043903 0.017547 -0.327882 -0.165841 -0.253271 0.007465 0.169732 0.136457 -0.661352 -0.106330 -0.213248 -0.088570 0.016684 -0.114264 -0.023492 0.569964 0.202097 -0.260441 0.306018 0.150140 0.171799 -0.563544 0.272605 0.232314 0.141555 -0.360512 0.115278 0.273284 -0.460592 -0.519326 -0.047232 -0.241116 0.024040 -0.074764 0.265496 -0.116452 -0.023652 -0.151863 -0.153105 0.198574 -0.389308 -0.203986 0.063629 0.070254 -0.045582 -0.335078 -0.210513 -0.607128 0.246401 0.532785 0.206936 -0.235480 0.048434 0.163473 5.766496 -0.335302
DB00603 -0.216966 0.173115 0.170157 0.038562 -0.020440 -0.109309 -0.640223 0.162863 0.368581 0.572001 -0.178690 0.715798 0.094218 0.062682 -0.453159 -0.130833 0.398903 0.466267 0.652881 -0.000393 -0.363921 -0.135397 0.388255 0.333680 -0.050190 0.299228 -0.083755 0.056346 -0.194860 -5.108529 0.159147 -0.389594 0.184635 -0.301576 -0.074632 0.016105 0.009696 0.290802 -0.438515 0.042986 -0.162616 -0.034272 -0.459903 -0.272264 -0.021006 0.417941 -0.068971 0.018635 -0.136477 -0.454947 0.198931 0.121540 -0.018346 -0.033893 0.299896 0.317756 0.292166 0.060994 0.113799 0.506981 -0.096912 0.401918 -0.008545 0.421330 -0.245676 0.254869 0.035748 0.092996 0.183293 -0.085132 0.094186 0.156756 0.086001 0.185763 -0.247034 0.151008 0.048038 0.294889 -0.371238 0.068809 -0.312072 -0.084863 -0.061121 -0.039388 0.115969 0.395965 -0.189243 -0.148100 7.636971 0.063615
OMIM601367 0.440350 -0.124077 0.115062 0.229297 0.319131 -0.160197 -0.346469 0.364783 -0.290507 -0.019278 -0.288525 -0.156994 0.668056 0.662164 0.204288 0.347451 -0.179986 0.170955 0.190958 0.232994 -0.010279 -0.023818 -0.707316 -0.476532 -0.119262 -0.284153 -0.267978 -0.103934 -0.261071 0.190303 0.332276 0.031659 0.595921 -0.279088 0.021743 0.049154 -0.156656 -0.111806 0.244028 0.070014 -0.316960 0.553684 -0.053057 0.203457 -0.473988 0.123310 -0.269744 -0.037130 -0.408182 -0.028827 -0.421812 -0.212072 0.280870 0.048016 0.044432 0.435106 -0.363549 -0.327675 -0.019276 0.045567 0.145103 0.006579 -0.130545 -0.453274 -0.274825 -0.026739 0.067351 -0.304099 0.451840 -0.338102 0.117027 -0.105567 -0.137020 0.233769 -0.349041 -0.159620 0.072760 -0.138911 -0.118253 0.186505 6.717249 0.233068 -0.138714 0.372626 -0.272682 -0.307470 -0.060346 -0.030707 -0.260051 0.081583
DB00215 0.181595 -0.033308 0.029930 -0.342242 -0.039659 -0.098510 0.254539 0.002477 0.831368 0.064382 -0.246523 -0.959267 -0.237954 -0.227309 0.211201 -0.422978 -0.530858 -0.110542 -0.035829 0.070782 0.119270 -0.169330 0.061848 -0.188647 -0.052737 -0.209706 0.062025 0.148562 0.044137 -6.060142 0.165811 0.153807 -0.248187 0.146153 -0.038021 0.028056 -0.130768 0.157671 0.032158 0.025372 -0.304088 0.008033 -0.098866 -0.301280 0.351262 0.524370 0.621776 0.029269 -0.174930 -0.231066 -0.607404 0.340168 -0.714529 -0.171047 0.148926 0.276029 0.035959 0.202089 0.167508 -0.266379 0.413038 -0.197012 0.082551 -0.286701 -0.272766 0.052051 0.051423 -0.155601 0.164012 0.286966 0.039943 -0.206644 -0.427123 0.365402 0.026489 -0.050594 0.059900 0.412757 0.242561 -0.279610 -0.259153 0.184170 0.158032 0.042882 0.223139 -0.446328 0.237396 0.258857 6.364451 0.409011
DB00443 0.077512 -0.124018 0.039536 -0.049055 0.285022 0.450163 -0.814711 -0.239299 0.041414 -0.186956 0.751311 0.731201 -0.068976 0.238307 0.266967 -0.385255 0.135756 0.374473 0.128242 -0.141942 0.064486 -0.066438 0.362548 0.006670 -0.028234 -0.214783 0.100591 -0.153290 -0.242343 -5.029273 0.170093 0.017440 -0.034183 -0.038021 -0.050697 0.039351 0.143549 -0.084740 -0.487779 0.028545 -0.726205 0.377010 -0.304219 0.091698 0.144674 -0.219284 -0.131809 0.297568 0.318411 0.130542 -0.108585 -0.018771 0.013112 0.203793 -0.079032 0.180395 -0.007045 0.270682 0.197318 -0.122566 -0.049349 0.000944 0.151721 0.325257 0.365394 -0.032607 0.022647 0.196105 -0.201065 -0.053286 0.184233 -0.234900 0.107887 -0.338457 -0.023696 0.257758 0.054024 -0.334715 0.220873 -0.203535 -0.314654 -0.381187 0.320788 0.229496 -0.330480 -0.107811 -0.055708 -0.627615 6.952907 -0.041533
OMIM144010 0.075719 -0.047028 -0.147941 -0.163826 -0.225687 -0.083834 -0.097309 0.127944 -0.036527 -0.175071 -0.174779 0.122391 -0.159476 0.368903 0.081172 -0.054213 0.020837 0.077080 0.563833 0.371113 0.269911 0.018094 -0.316767 0.049658 -0.054511 -0.129583 0.073046 -0.303571 0.163866 0.276250 0.129522 0.463338 0.431250 -0.122097 0.011777 0.065983 -0.095180 -0.201238 0.210216 0.028588 0.162464 0.438471 0.009770 0.400966 -0.275176 0.322257 -0.746631 0.040083 0.166759 0.415666 -0.808539 0.335574 0.387858 0.342611 -0.362535 0.281024 0.227166 0.041125 0.106258 0.666552 0.632031 0.284879 0.209271 -0.064907 -0.588346 0.358789 0.082148 -0.155439 -0.046569 -0.103806 -0.198289 -0.142619 -0.142054 -0.219488 0.339299 0.401837 0.082095 0.140591 -0.103095 0.253788 6.846422 -0.037609 -0.061209 -0.307129 -0.126732 -0.263651 0.850014 0.381090 -0.221163 0.205030
DB00264 -0.170785 -0.087332 -0.014677 0.181585 0.374595 0.042796 -0.080147 -0.088857 0.140050 0.481890 -0.015009 -1.463826 -0.101731 -0.422391 0.340829 0.040170 -0.186838 -0.253579 0.079329 0.324367 0.152295 0.026040 -0.439142 0.074993 0.077188 0.254079 0.148676 0.374452 -0.308275 -4.526132 0.122575 0.137166 -0.019588 0.089767 -0.135783 -0.009094 -0.054190 -0.139020 -0.122411 0.064030 0.216892 0.041170 0.014706 -0.106803 -0.209426 0.000248 -0.169083 0.366465 0.022704 -0.199085 -0.127315 -0.521907 0.005322 0.240237 -0.111602 -0.269408 -0.460178 0.396329 0.397560 -0.010430 0.126732 0.388817 -0.158281 -0.113979 -0.029713 -0.066832 0.031554 0.142363 -0.280933 -0.101574 -0.159058 -0.495205 0.265436 0.224027 0.034034 -0.265495 0.048762 -0.243382 0.213363 0.491302 -0.279864 -0.126312 -0.552878 -0.195744 0.131448 0.339513 -0.242136 -0.120617 7.571826 -0.229770
DB00163 0.392496 0.089823 0.065082 -0.535949 -0.047373 -0.015180 0.634586 -0.159095 0.012352 -0.087814 -0.184601 -0.110244 0.199104 -0.324792 -0.474224 -0.138101 0.242395 0.082024 -0.034509 0.170917 0.585072 0.441492 -0.046382 0.073416 -0.063092 0.462445 -0.338990 0.210592 0.110975 -5.545712 -0.013516 0.032940 0.820238 -0.359962 -0.044247 0.025074 -0.574599 0.011465 0.217675 0.079124 -0.069443 -0.172111 -0.469438 -0.168694 -0.058199 0.120250 0.322116 -0.639081 0.035555 0.763370 0.480994 0.284048 0.391736 0.345823 -0.551964 0.207408 0.065120 0.077705 0.380226 -0.167187 0.387751 -0.095797 -0.230929 0.078741 -0.209961 -0.075234 0.023746 0.027836 0.048863 -0.249316 0.140880 -0.112707 -0.027009 -0.328815 0.407158 0.093731 0.065359 -0.188748 0.183927 -0.033700 -0.302483 -0.175156 0.151950 -0.277036 0.287413 -0.118076 -0.186113 0.062197 6.317328 0.056913
OMIM266600 -0.349409 0.428648 -0.133781 0.482546 -0.005071 -0.346663 -0.028965 -0.050057 0.319712 0.586068 -0.100843 0.343477 -0.032188 -0.109428 -0.210722 0.504721 0.205097 0.202545 -0.519361 0.454384 0.177096 -0.054818 0.270050 0.403832 -0.034630 0.140084 0.015544 0.199494 0.141896 0.205249 0.139971 -0.234871 0.172290 -0.204807 -0.015404 0.059965 -0.171318 -0.509830 0.057167 0.091561 0.343409 0.030133 0.105462 -0.174903 0.116109 -0.275200 -0.064652 -0.293058 0.605250 -0.089991 0.243230 -0.113344 -0.060915 0.398789 0.047823 0.712560 -0.235028 -0.039440 0.600437 0.340804 0.051521 -0.494358 -0.494447 -0.185110 -0.031408 -0.246999 0.039927 -0.031328 0.036643 0.775055 0.284011 0.417369 -0.046253 -0.401524 -0.101708 0.144319 0.058476 0.171632 -0.362222 -0.105544 6.466612 0.563359 0.128804 0.275367 -0.353107 -0.236607 0.409143 -0.467163 -0.233222 -0.137756
DB01050 0.252139 0.076442 0.036921 -0.076536 -0.026482 0.355145 0.698232 -0.068560 -0.188483 0.043055 0.116796 -3.293127 0.128353 -0.003510 -0.050096 0.131564 -0.712102 0.154748 -0.158232 0.244230 -0.125234 0.064184 -0.204381 0.117689 -0.065788 0.311507 0.062425 -0.019589 -0.168000 -6.208588 -0.066096 -0.022199 -0.040895 0.028385 -0.046121 0.032622 0.079879 -0.099861 -0.152090 -0.006071 -0.182737 -0.099074 -0.101515 0.087150 0.206132 -0.102260 0.047433 0.081465 0.046030 -0.004603 0.013409 0.063135 0.122560 0.110637 0.085177 0.075441 0.341145 -0.152735 -0.143176 0.395111 -0.042951 -0.085794 0.281325 -0.311186 0.115665 0.099016 0.054091 0.174788 -0.123254 -0.200131 -0.037952 0.332061 0.344101 -0.031788 -0.046120 -0.507472 0.069147 0.219033 0.120152 -0.425081 -0.192636 0.190124 0.503713 -0.106568 -0.348522 -0.026770 -0.074928 0.006093 6.722293 0.309619
DB00290 -0.028202 0.171882 -0.170764 0.211390 -0.250415 0.348363 0.420479 -0.293277 0.199981 -0.178315 -0.047060 -0.370841 0.092297 -0.114701 -0.156888 -0.274827 0.499580 -0.006218 0.340417 -0.148220 -0.343398 0.045872 0.323310 -0.222161 0.029069 -0.136297 -0.039192 0.203796 -0.484047 -3.012415 -0.344299 0.095111 0.226851 0.299474 -0.123615 -0.012886 0.149824 -0.119328 0.594354 0.039521 0.493164 0.490097 0.294661 0.046561 -0.076341 -0.027727 0.463564 -0.329391 0.181429 0.395488 -0.302965 0.016330 -0.058306 0.205061 0.329145 -0.170028 0.063547 0.021548 -0.112919 -0.308198 0.002542 -0.093840 0.048894 0.327552 0.321415 0.494870 0.041705 0.192180 0.239395 0.002927 -0.012639 0.178450 -0.014808 0.120712 0.196052 -0.425079 0.037380 0.191784 -0.160976 0.284349 -0.245854 0.064675 -0.316964 0.210560 -0.565471 0.002267 -0.107644 0.062412 8.099293 0.007865
OMIM144700 -0.135210 0.198131 0.242544 -0.271659 -0.106806 -0.257297 -0.039436 0.161029 0.336050 0.326835 0.043435 0.043923 0.456345 -0.063556 0.112367 0.315784 0.406393 0.409723 0.399503 -0.137458 -0.762656 -0.187087 0.287385 -0.138818 -0.091009 -0.074215 -0.075355 0.178117 -0.521472 0.283232 0.605556 0.052937 -0.023340 -0.526061 -0.025721 0.059636 -0.110031 0.032675 -0.589235 0.046713 0.548866 -0.172734 -0.020849 0.057929 0.251351 0.189590 0.125070 -0.110589 -0.071044 -0.161756 0.508761 0.161269 0.124918 -0.242470 0.389602 0.065274 0.123233 0.260294 -0.007507 0.441473 0.195042 0.210627 0.038147 0.072520 -0.166600 0.563919 0.052289 -0.034784 0.289832 0.187832 -0.169318 -0.068031 -0.118121 -0.335221 -0.336688 0.089338 0.081520 0.343962 -0.292735 0.210971 6.669949 -0.309335 -0.034116 -0.202720 0.039563 0.463098 -0.153157 0.340431 -0.175118 -0.026907
DB00388 0.430883 0.067555 0.205961 -0.473675 -0.053677 0.431652 -0.527804 0.173838 0.005820 -0.075737 -0.182528 -0.046529 -0.086303 -0.102906 0.217355 -0.034400 -0.214932 -0.147213 0.089648 -0.084185 0.395948 -0.132468 0.067270 0.517077 -0.032179 0.273508 -0.273484 -0.530891 0.121916 -3.405040 0.491968 0.129070 -0.141392 -0.155752 0.007801 0.028451 0.333603 0.019522 0.408098 0.038670 0.154149 0.227705 0.253382 -0.325219 -0.099090 -0.278505 0.014326 0.446294 0.232468 0.351537 0.276268 0.048574 -0.088518 -0.286888 0.249410 -0.388980 -0.113900 -0.177080 -0.194594 0.082810 -0.145156 0.021593 -0.425791 -0.204003 0.120879 -0.041193 0.036982 -0.485628 -0.298062 0.087772 -0.345254 -0.345165 0.074546 0.027639 -0.195146 -0.140268 0.041400 0.455841 0.031395 -0.025900 -0.288614 -0.046522 0.057992 0.211165 0.022556 0.376232 0.007262 -0.313267 8.284757 0.340254
OMIM601626 0.226077 -0.304135 -0.144943 -0.020245 -0.628360 -0.031538 -0.091929 -0.001734 -0.080544 -0.000794 -0.491528 0.417796 0.300196 -0.268363 -0.153904 0.473516 0.471417 -0.157436 -0.464691 0.424911 -0.381584 0.160271 0.433056 -0.380097 -0.073967 0.079996 -0.229522 -0.071846 0.262046 0.369527 -0.381728 -0.180521 -0.201869 0.123637 -0.049432 0.052677 0.265666 -0.025782 -0.217524 0.032668 -0.153701 0.419858 0.042253 0.027645 -0.007636 0.096609 0.062796 0.187869 0.342786 0.026635 -0.180948 -0.214243 0.001931 -0.020873 0.178405 -0.178579 -0.162257 0.036968 0.514142 -0.256353 0.210643 -0.324806 0.094332 0.323163 0.249307 0.279537 0.043838 0.111031 0.392152 0.071324 -0.079885 0.114913 -0.097172 0.214219 -0.116893 0.128980 0.081992 -0.319034 -0.116485 0.032171 6.442969 -0.072361 -0.012963 -0.500976 -0.559500 -0.035651 0.194871 0.070174 -0.100265 -0.098373
DB00313 0.132603 0.196668 -0.185931 -0.014437 0.252231 -0.300812 -0.083828 -0.142842 0.344813 0.060782 0.066025 0.592217 0.229949 0.085746 -0.497301 0.161043 0.234535 -0.241385 0.236325 0.074552 0.182623 0.625233 -0.159728 -0.321285 -0.052170 0.291275 0.153256 0.207490 0.152514 -3.989262 0.408167 0.171549 -0.149913 -0.375478 -0.059908 0.014134 0.030175 -0.116899 -0.023743 0.030599 -0.585735 -0.491424 -0.201692 -0.423833 0.317424 0.302967 0.404937 -0.165789 0.347242 0.291990 -0.098194 0.238247 0.386153 -0.488376 0.078720 -0.053634 0.003752 0.074020 -0.497417 -0.257964 0.041670 0.092431 -0.346540 -0.154463 0.002826 -0.398868 0.044579 0.097424 -0.364323 0.025674 0.013498 -0.022522 -0.262937 -0.100971 0.387125 0.191876 0.063999 -0.554764 -0.075734 -0.190742 -0.263485 0.113450 0.283834 -0.206269 0.293859 -0.306438 -0.027496 0.223350 6.972916 -0.339802
DB00586 0.011122 0.149692 0.206811 0.217152 0.129274 -0.048713 1.083809 -0.063621 -0.481745 0.189773 -0.070614 -2.619866 0.415281 0.270267 0.099623 0.055759 -0.601069 0.163671 -0.185258 -0.021059 -0.188791 0.243321 -0.075460 -0.165435 -0.061254 0.205467 -0.096677 0.183957 -0.023774 -6.472993 -0.195815 0.128977 -0.162533 -0.141112 -0.035419 0.016898 0.439986 -0.341749 0.030076 -0.059848 0.106689 -0.077053 -0.083812 -0.012769 0.252413 -0.033439 0.001029 -0.207203 0.251095 0.126396 -0.026893 0.172773 0.123686 -0.167979 -0.163330 0.113529 0.463131 -0.112963 0.121172 0.405092 0.098744 0.153457 0.470236 -0.349916 -0.161554 -0.244696 0.058197 0.247154 -0.043149 0.000203 0.134858 0.041388 0.371028 -0.005031 -0.002937 -0.353156 0.068581 -0.025899 0.277566 -0.352599 -0.209838 0.075370 0.432874 0.077740 -0.314038 -0.022516 -0.187123 0.026071 6.418744 0.293152
DB01162 -0.497511 -0.292650 0.144346 -0.063267 0.184824 0.264063 -0.061339 0.094054 -0.000969 -0.102119 0.015570 -2.172678 0.262380 -0.018509 -0.022246 0.211685 -0.316651 0.267258 -0.160150 -0.054076 0.082848 0.221840 -0.244641 -0.143508 0.052557 0.010295 -0.341587 -0.250577 0.154643 -5.607947 -0.402737 0.226876 0.300388 -0.073753 -0.123010 -0.002960 -0.307512 -0.203896 -0.140011 -0.057336 0.011099 -0.176405 0.055203 -0.259766 -0.324099 -0.259933 0.000710 -0.389177 -0.435867 -0.285046 -0.033551 0.061951 0.094707 -0.387741 -0.275638 0.380535 -0.698088 -0.277100 0.066922 -0.160968 0.130917 0.290174 0.340739 -0.238287 0.166195 0.181493 0.071224 0.042253 0.365151 0.246881 -0.087566 0.032039 0.091805 -0.184320 0.056349 0.048138 0.070409 -0.102943 -0.036129 -0.009614 -0.281040 -0.455913 -0.044695 -0.192715 0.111660 0.283240 -0.134481 0.076288 6.796957 0.014878
DB00987 0.169250 -0.272157 0.006443 -0.169362 -0.454455 -0.126057 0.822647 -0.069986 0.023798 -0.043143 0.057929 0.310047 0.358040 -0.308040 0.137642 -0.100624 0.544837 -0.040141 -0.149157 -0.044970 -0.482011 0.301668 0.376606 -0.435758 -0.062820 0.085480 -0.313234 0.028267 -0.238282 -3.095517 -0.536562 -0.121021 0.081151 -0.180775 -0.049223 0.020764 -0.052060 0.274912 -0.077932 0.077087 0.375978 0.518512 0.152809 -0.006959 0.145773 0.035365 0.150291 0.168078 0.036345 0.148479 -0.078228 -0.033247 -0.043196 -0.003122 0.261697 -0.157090 0.145710 -0.063058 0.183547 0.095488 0.209929 -0.001144 -0.021376 0.770981 0.165052 0.359503 0.037537 0.072220 -0.105160 0.273007 -0.030441 0.083767 -0.286949 0.068813 -0.045066 -0.213145 0.061495 -0.276991 -0.240322 0.023338 -0.227367 -0.053032 -0.169687 -0.059282 -0.533706 0.081218 0.108121 0.145098 8.698979 -0.037750
DB00993 -0.306788 -0.287647 0.133490 0.376155 0.186646 -0.045006 1.693711 -0.252689 0.111594 0.146518 0.416327 1.646845 0.152421 0.215719 0.115661 0.163844 0.188973 0.057795 -0.264217 -0.072798 0.100976 -0.053189 0.272608 0.457630 -0.022915 0.011769 0.121764 -0.237087 -0.111160 -6.062111 -0.127010 -0.003129 0.104376 -0.113161 -0.018826 0.038305 -0.429512 -0.215561 -0.288969 0.064134 0.049317 -0.098143 0.009228 0.418714 -0.035218 -0.252235 0.092141 0.249590 0.238191 -0.073378 -0.081986 0.277085 -0.200849 -0.022937 -0.173764 0.334458 -0.295169 0.227203 -0.106508 -0.142464 0.295136 -0.286378 -0.740442 0.057413 -0.368848 -0.104175 0.044146 0.115772 0.177079 0.164094 0.587208 0.318741 0.343245 -0.395492 -0.015449 -0.129570 0.055714 -0.229348 -0.345954 -0.096803 -0.193625 0.560316 0.097678 0.074442 -0.301084 -0.021881 0.364172 -0.550420 6.412579 0.260091
OMIM157700 -0.244864 -0.043432 0.009812 -0.149766 0.087187 0.412282 -0.321062 -0.152516 0.277862 0.405174 0.298377 -0.046265 -0.257238 -0.397198 0.220763 -0.165904 -0.221292 -0.062344 0.273563 0.481769 0.050002 0.084053 -0.254226 0.049568 -0.083031 0.350882 0.293936 0.208308 -0.504611 0.305053 0.279880 0.213455 -0.054035 0.077066 0.132688 0.087917 -0.595045 -0.442414 -0.303586 0.019002 0.095469 0.451561 -0.117686 -0.179232 -0.037714 -0.041084 -0.048979 0.624567 0.349596 -0.196373 -0.379650 -0.489069 -0.025151 0.188071 -0.205507 -0.427966 -0.343443 0.064851 0.433499 0.063245 -0.093825 0.265957 0.266637 -0.151075 0.046729 -0.295160 0.067758 -0.003344 -0.452720 -0.408390 -0.029098 -0.589111 0.270885 0.104069 -0.225836 -0.148981 0.057777 -0.161774 0.213013 0.426487 6.851891 -0.008601 -0.293600 -0.167042 0.108645 0.502731 -0.025626 -0.290738 -0.169271 -0.314380
DB00515 0.139413 0.290142 -0.430406 0.135703 0.323069 -0.069135 1.839939 -0.042784 -0.001769 -0.100179 -0.267491 -0.025900 0.099484 -0.328544 -0.289324 0.093490 0.525855 -0.244253 0.348077 -0.012583 -0.476786 -0.167121 0.375655 -0.094754 -0.036209 -0.205284 0.138996 0.114543 0.041728 -3.273669 -0.213776 0.116341 -0.006248 -0.046366 -0.076569 0.031765 -0.107444 -0.098208 -0.047627 0.032230 -0.113053 0.231435 0.188424 0.152980 0.000505 -0.068317 0.177941 0.167785 -0.360998 0.157943 0.115064 0.025279 -0.011708 -0.321973 -0.065352 -0.229124 -0.129022 -0.148037 -0.342770 -0.108480 0.079846 0.151541 -0.048285 0.493527 0.299622 -0.387676 0.047982 0.080066 -0.009014 0.054685 0.021236 0.276023 -0.036051 -0.072941 -0.005246 -0.373157 0.056397 0.637846 0.131671 0.137791 -0.184852 -0.175982 -0.336330 -0.502698 -0.495719 -0.199323 0.078046 0.236172 8.239324 -0.119699
OMIM304790 0.022429 -0.001989 -0.290031 0.205515 -0.015657 0.266953 0.056289 -0.082620 0.138601 0.211433 0.416703 0.348313 -0.371658 -0.152509 0.080666 0.163932 0.278696 0.104513 -0.180259 -0.268966 -0.046009 0.102979 0.030146 0.063545 -0.023850 -0.396119 0.043863 -0.314142 -0.165308 0.160900 -0.013269 -0.481516 0.022134 -0.278311 -0.028907 0.045718 0.157618 0.732700 0.144748 0.027688 -0.357783 0.062654 0.233635 0.259246 0.135873 -0.755199 -0.329542 -0.438139 0.347166 -0.385411 -0.321084 0.092357 0.370279 -0.037813 -0.305022 0.111534 0.281033 0.437001 0.047617 -0.053755 0.249344 -0.245028 -0.203031 0.164585 0.110597 -0.385450 0.075227 -0.016738 -0.061197 -0.263658 0.394071 -0.333892 -0.197451 -0.029851 -0.107353 0.032819 0.058373 0.114383 0.587620 -0.012442 7.602221 -0.347173 -0.009810 0.181043 0.352762 0.175849 -0.283572 0.352675 -0.260104 0.338470
DB00959 0.006106 0.073832 0.066679 0.075808 0.225512 0.076649 -0.567862 0.172608 -0.007696 -0.299387 0.840652 0.593379 -0.076134 0.144092 0.032063 -0.324816 0.126401 0.385895 -0.054956 -0.053124 0.103177 -0.145107 0.259590 -0.123588 -0.042276 -0.155194 -0.145242 0.010760 -0.008398 -4.659131 0.102409 -0.085252 -0.044900 0.037787 -0.035609 0.030606 0.285076 0.077540 -0.253171 0.041947 -0.519808 0.027303 -0.080971 0.136760 -0.054845 -0.186665 -0.011578 0.079549 0.152275 0.162796 0.163424 0.242881 0.166272 0.684857 0.027213 0.169556 0.155311 -0.214488 0.176665 -0.108819 0.015422 0.034824 -0.281177 0.449594 0.162345 -0.267076 0.032812 -0.071126 -0.501488 0.040226 0.166855 -0.330252 -0.043074 -0.517812 0.024873 0.000026 0.052274 0.549552 0.275520 -0.150217 -0.286960 -0.470636 0.263343 -0.124795 -0.338783 0.044370 -0.113643 -0.403308 6.213819 0.401545
DB00397 0.169927 0.061741 0.326458 0.335571 -0.078176 -0.010929 -0.689540 0.197941 -0.084743 -0.316857 -0.333138 0.541990 -0.221716 0.055643 -0.233291 -0.116161 0.031124 -0.141126 0.309564 0.284498 0.240577 -0.080277 0.031245 -0.245268 -0.045535 0.069075 -0.121687 -0.216313 -0.240795 -4.339329 0.477839 -0.375797 -0.311601 0.011823 -0.059090 0.030105 0.048776 -0.118920 0.165398 0.029074 0.444140 0.198024 -0.154603 0.188246 -0.029622 -0.403150 0.101333 0.152383 0.092054 0.000209 0.396869 -0.331405 -0.625494 -0.082722 -0.428585 -0.124843 0.022226 0.170427 -0.262114 0.028375 -0.176791 -0.067259 -0.205389 0.088012 0.183049 -0.147432 0.043948 -0.611386 -0.029086 -0.038395 -0.081520 -0.350129 -0.127601 -0.327836 0.363429 0.059483 0.063614 -0.136091 -0.026431 -0.336127 -0.332482 -0.237405 0.347000 0.133246 0.049990 0.133149 0.128962 0.358822 9.022586 0.729010
OMIM600131 -0.087554 -0.195131 0.491309 0.011099 0.202992 -0.040285 0.369095 0.036601 0.004660 0.259845 -0.104822 0.526265 -0.329807 -0.087650 0.168513 0.081656 0.533296 -0.134722 -0.074450 0.142381 0.142991 0.641779 -0.409752 -0.024736 -0.082990 -0.208086 -0.084336 0.035678 -0.004084 0.054103 0.213770 0.276733 -0.373590 -0.131695 -0.037323 0.044031 -0.127232 -0.165728 0.118328 0.047280 0.082130 -0.089857 0.049567 -0.020708 0.020422 0.361290 -0.444276 -0.085537 -0.196182 -0.126229 0.068924 0.146016 -0.144848 0.336819 -0.035252 -0.051359 -0.148623 -0.062030 -0.082076 -0.252442 -0.435774 0.116629 0.051811 0.015309 -0.121036 0.158928 0.084473 0.410399 0.056288 0.095550 -0.253049 0.145110 0.063840 0.039162 -0.084343 -0.405572 0.079150 0.236784 0.171643 -0.370338 7.439432 -0.009119 0.146723 0.129051 0.377653 -0.128537 0.028560 0.017473 -0.408773 -0.099301
DB00734 0.159498 0.042552 0.468862 0.334807 0.008598 0.406482 0.469197 0.103394 0.871874 0.200923 -0.102662 -0.572993 -0.388623 0.136206 -0.017361 -0.083738 -0.377156 -0.561089 -0.145158 -0.084910 0.079400 -0.264271 -0.010032 -0.007134 -0.024228 -0.346020 -0.167759 0.168230 0.283372 -5.472708 -0.196274 0.107477 -0.328703 -0.429251 -0.048385 -0.004759 0.092570 0.044401 -0.253933 0.040330 -0.146361 -0.022301 0.029573 -0.466522 0.302366 0.574733 0.605151 0.185864 -0.294334 -0.123105 -0.384055 0.373614 -0.144892 -0.190726 0.119142 -0.351636 0.028148 0.213311 0.125321 -0.280323 0.275137 -0.020982 0.087670 -0.246246 -0.149266 -0.005748 0.056398 -0.099213 0.104677 -0.017649 0.246083 -0.109156 -0.567186 -0.260134 0.104390 -0.032177 0.061456 0.099903 0.081606 -0.214720 -0.261119 0.221419 0.115483 -0.095826 0.248867 -0.456096 0.104190 0.199684 6.774053 -0.074804
OMIM607682 -0.123589 -0.199606 0.391958 -0.063452 0.186434 -0.049285 0.419106 0.045363 0.062169 0.241480 -0.149312 0.458817 -0.371289 -0.026234 0.191982 0.100974 0.563605 -0.055891 -0.085957 0.196887 0.159577 0.710807 -0.479273 0.045506 -0.060811 -0.247328 -0.008489 0.038149 -0.015016 0.068883 0.105180 0.309440 -0.445361 -0.203577 -0.041208 0.059139 -0.082623 -0.116370 0.198953 0.065453 0.056195 -0.138316 0.067271 -0.009502 -0.018018 0.368293 -0.440069 -0.032483 -0.163233 -0.099628 0.151500 0.106387 -0.199492 0.329361 0.030743 -0.128319 -0.064148 -0.070895 -0.089969 -0.193030 -0.449125 0.064482 0.056226 0.033890 -0.143306 0.100671 0.066857 0.404323 0.157282 0.066533 -0.150244 0.132112 0.027393 0.130481 -0.044213 -0.416755 0.073765 0.265118 0.128919 -0.390910 7.473196 0.014326 0.200371 0.049663 0.386018 -0.177745 -0.105983 0.015172 -0.411403 -0.095160
OMIM267730 0.102367 -0.237979 -0.125408 -0.133639 -0.283497 0.541295 0.601424 -0.186362 -0.012825 -0.128554 0.045734 0.184477 0.223592 -0.300951 -0.066934 -0.217880 0.454825 -0.118702 0.115190 -0.336465 -0.511698 0.146426 0.269998 -0.233228 -0.074619 0.074509 -0.193838 0.107242 -0.198600 0.344524 -0.488978 -0.021669 0.103453 -0.041578 -0.015712 0.062105 0.058280 0.290256 0.162278 0.061073 0.601349 0.556934 0.140183 -0.068944 -0.018148 -0.142036 0.160822 -0.003098 0.031851 0.246129 -0.228279 -0.064131 -0.088495 0.419766 0.202559 -0.107784 -0.055407 -0.023762 -0.281795 -0.153584 0.170294 0.002722 0.114858 0.261283 0.201168 0.114373 0.060058 0.110846 0.117806 0.243192 -0.059586 0.078716 -0.227127 0.322120 0.158801 -0.212173 0.064371 -0.171394 -0.294853 0.029902 7.154858 0.163959 -0.152688 -0.033463 -0.656999 -0.070567 0.075798 0.127388 -0.171432 -0.039616
DB00747 0.102985 0.301602 -0.129800 0.170472 -0.055291 0.103027 -0.214810 -0.209995 -0.305215 0.211513 0.048418 0.051933 -0.273343 -0.016660 0.500395 -0.293063 0.287820 0.053743 -0.407132 0.283329 0.410343 0.150722 -0.093520 0.180146 -0.055328 0.099737 0.077048 0.092516 0.335649 -4.077133 0.581382 -0.251043 0.518759 -0.203563 -0.040379 0.025202 0.204999 -0.212134 -0.192189 0.007428 0.048028 -0.144482 0.162258 -0.345819 0.681902 -0.146171 0.288952 -0.443762 -0.249196 -0.059113 -0.271618 0.090630 0.355243 -0.077463 0.265780 -0.377671 -0.047496 -0.445909 0.335082 -0.194873 0.283909 -0.159234 -0.029633 -0.033794 0.494321 0.017495 0.066492 -0.215158 0.289509 -0.158927 0.196061 -0.196137 0.208386 0.036975 0.409303 0.062046 0.070995 0.021996 -0.764660 -0.153297 -0.282488 -0.224549 0.113391 0.031860 0.457288 -0.018821 -0.074935 0.352652 7.958889 0.228315
OMIM607681 -0.093323 -0.235766 0.348406 -0.142243 0.176325 -0.084789 0.393566 0.036294 -0.000958 0.175266 -0.086167 0.518099 -0.328055 -0.030236 0.166806 0.109120 0.548913 -0.089408 -0.103108 0.161348 0.162932 0.751481 -0.451980 0.067519 -0.044693 -0.213950 -0.062066 0.010686 -0.025664 0.064751 0.104868 0.268340 -0.375505 -0.118383 -0.041967 0.067077 -0.025382 -0.136790 0.103725 0.052990 0.081077 -0.175861 0.059267 -0.012100 -0.031577 0.376315 -0.413217 -0.019176 -0.240944 -0.132609 0.232777 0.089822 -0.153145 0.331719 0.024090 -0.063401 -0.137668 -0.056276 -0.110083 -0.219381 -0.456307 0.109091 0.055741 0.049304 -0.141098 0.130886 0.070631 0.421439 0.160874 0.108984 -0.192805 0.117959 0.038494 0.058750 -0.051380 -0.445387 0.084977 0.256321 0.146809 -0.336681 7.385550 0.004606 0.158118 0.087032 0.371896 -0.192817 -0.013815 0.049974 -0.424317 -0.139915
